{"learner":{"attributes":{"scikit_learn":"{\"_estimator_type\": \"classifier\"}"},"feature_names":["volt_rm24","rotate_rm24","pressure_rm24","vibration_rm24","volt_rs24","rotate_rs24","pressure_rs24","vibration_rs24","volt","rotate","pressure","vibration","err_24h","age","model_model1","model_model2","model_model3","model_model4"],"feature_types":["float","float","float","float","float","float","float","float","float","float","float","float","float","int","i","i","i","i"],"gradient_booster":{"model":{"cats":{"enc":[],"feature_segments":[],"sorted_idx":[]},"gbtree_model_param":{"num_parallel_tree":"1","num_trees":"300"},"iteration_indptr":[0,1,2,3,4,5,6,7,8,9,10,11,12,13,14,15,16,17,18,19,20,21,22,23,24,25,26,27,28,29,30,31,32,33,34,35,36,37,38,39,40,41,42,43,44,45,46,47,48,49,50,51,52,53,54,55,56,57,58,59,60,61,62,63,64,65,66,67,68,69,70,71,72,73,74,75,76,77,78,79,80,81,82,83,84,85,86,87,88,89,90,91,92,93,94,95,96,97,98,99,100,101,102,103,104,105,106,107,108,109,110,111,112,113,114,115,116,117,118,119,120,121,122,123,124,125,126,127,128,129,130,131,132,133,134,135,136,137,138,139,140,141,142,143,144,145,146,147,148,149,150,151,152,153,154,155,156,157,158,159,160,161,162,163,164,165,166,167,168,169,170,171,172,173,174,175,176,177,178,179,180,181,182,183,184,185,186,187,188,189,190,191,192,193,194,195,196,197,198,199,200,201,202,203,204,205,206,207,208,209,210,211,212,213,214,215,216,217,218,219,220,221,222,223,224,225,226,227,228,229,230,231,232,233,234,235,236,237,238,239,240,241,242,243,244,245,246,247,248,249,250,251,252,253,254,255,256,257,258,259,260,261,262,263,264,265,266,267,268,269,270,271,272,273,274,275,276,277,278,279,280,281,282,283,284,285,286,287,288,289,290,291,292,293,294,295,296,297,298,299,300],"tree_info":[0,0,0,0,0,0,0,0,0,0,0,0,0,0,0,0,0,0,0,0,0,0,0,0,0,0,0,0,0,0,0,0,0,0,0,0,0,0,0,0,0,0,0,0,0,0,0,0,0,0,0,0,0,0,0,0,0,0,0,0,0,0,0,0,0,0,0,0,0,0,0,0,0,0,0,0,0,0,0,0,0,0,0,0,0,0,0,0,0,0,0,0,0,0,0,0,0,0,0,0,0,0,0,0,0,0,0,0,0,0,0,0,0,0,0,0,0,0,0,0,0,0,0,0,0,0,0,0,0,0,0,0,0,0,0,0,0,0,0,0,0,0,0,0,0,0,0,0,0,0,0,0,0,0,0,0,0,0,0,0,0,0,0,0,0,0,0,0,0,0,0,0,0,0,0,0,0,0,0,0,0,0,0,0,0,0,0,0,0,0,0,0,0,0,0,0,0,0,0,0,0,0,0,0,0,0,0,0,0,0,0,0,0,0,0,0,0,0,0,0,0,0,0,0,0,0,0,0,0,0,0,0,0,0,0,0,0,0,0,0,0,0,0,0,0,0,0,0,0,0,0,0,0,0,0,0,0,0,0,0,0,0,0,0,0,0,0,0,0,0,0,0,0,0,0,0,0,0,0,0,0,0,0,0,0,0,0,0,0,0,0,0,0,0,0,0,0,0,0,0],"trees":[{"base_weights":[6.435002E-3,-1.5329865E0,1.683049E0,7.33223E-1,-1.6671245E0,1.5047431E0,1.9673045E0,6.244103E-1,1.7298945E0,-1.8015223E0,4.3559584E-1,1.2523234E0,1.9643942E0,1.5987912E-1,1.8432963E0,7.1582067E-1,-1.5667526E-1,1.7762576E0,-1.2E-1,-1.8977011E0,2.0495597E-1,1.3953433E0,2.7049166E-1,6.260747E-1,1.9576509E0,1.8524197E0,1.5777557E-1,1.6963997E0,1.5953895E-1,5.0729126E-2,1.2824945E-1,3.307323E-2,-1.571806E-1,1.436734E-1,-8.888889E-2,-1.5718852E-1,-9.257025E-2,-1.5956786E-1,6.1675705E-2,-1.3217391E-1,1.15155496E-1,-5.898619E-3,5.5663195E-2,-1.06976666E-1,1.3468784E-1,-1.5657754E-1,1.5852268E-1,-1.14285715E-1,1.4949116E-1,-1.8500614E-3,1.415408E-1],"categories":[],"categories_nodes":[],"categories_segments":[],"categories_sizes":[],"default_left":[0,0,0,0,0,0,0,0,0,0,0,0,0,0,0,0,0,0,0,0,0,0,0,0,0,0,0,0,0,0,0,0,0,0,0,0,0,0,0,0,0,0,0,0,0,0,0,0,0,0,0],"id":0,"left_children":[1,3,5,7,9,11,13,15,17,19,21,23,25,-1,27,29,31,33,-1,35,37,39,41,43,45,47,-1,49,-1,-1,-1,-1,-1,-1,-1,-1,-1,-1,-1,-1,-1,-1,-1,-1,-1,-1,-1,-1,-1,-1,-1],"loss_changes":[2.2037672E5,1.35325E4,2.0685547E3,2.6876697E2,1.18773125E4,2.912125E3,5.7226562E1,1.603935E2,3.9255127E1,7.6233906E3,3.9981888E2,7.162539E3,4.125E0,0E0,6.7081055E1,1.4469312E2,2.4408595E2,1.5695801E1,0E0,1.8724062E3,2.2520598E3,5.2166626E1,3.1570068E2,1.7841467E4,7.1699414E2,3.4401978E1,0E0,2.0265967E2,0E0,0E0,0E0,0E0,0E0,0E0,0E0,0E0,0E0,0E0,0E0,0E0,0E0,0E0,0E0,0E0,0E0,0E0,0E0,0E0,0E0,0E0,0E0],"parents":[2147483647,0,0,1,1,2,2,3,3,4,4,5,5,6,6,7,7,8,8,9,9,10,10,11,11,12,12,14,14,15,15,16,16,17,17,19,19,20,20,21,21,22,22,23,23,24,24,25,25,27,27],"right_children":[2,4,6,8,10,12,14,16,18,20,22,24,26,-1,28,30,32,34,-1,36,38,40,42,44,46,48,-1,50,-1,-1,-1,-1,-1,-1,-1,-1,-1,-1,-1,-1,-1,-1,-1,-1,-1,-1,-1,-1,-1,-1,-1],"split_conditions":[1E0,3.8549057E2,2E0,1.8684679E2,1.8383778E2,1.8197816E2,3.990723E2,6.122783E1,1.8372952E1,4.7910503E1,1.1866957E1,4.6914577E1,1.8547624E2,1.5987912E-1,4.7910503E1,4.7910503E1,3.7625272E2,2.0959065E2,-1.2E-1,1.17022354E2,1.4E1,3.3019405E1,1.9037802E2,1.1141859E2,1.2E1,4.2743008E2,1.5777557E-1,1.684911E2,1.5953895E-1,5.0729126E-2,1.2824945E-1,3.307323E-2,-1.571806E-1,1.436734E-1,-8.888889E-2,-1.5718852E-1,-9.257025E-2,-1.5956786E-1,6.1675705E-2,-1.3217391E-1,1.15155496E-1,-5.898619E-3,5.5663195E-2,-1.06976666E-1,1.3468784E-1,-1.5657754E-1,1.5852268E-1,-1.14285715E-1,1.4949116E-1,-1.8500614E-3,1.415408E-1],"split_indices":[12,1,12,0,0,0,1,5,4,3,4,3,0,0,3,3,1,8,0,10,13,11,0,10,13,1,0,0,0,0,0,0,0,0,0,0,0,0,0,0,0,0,0,0,0,0,0,0,0,0,0],"split_type":[0,0,0,0,0,0,0,0,0,0,0,0,0,0,0,0,0,0,0,0,0,0,0,0,0,0,0,0,0,0,0,0,0,0,0,0,0,0,0,0,0,0,0,0,0,0,0,0,0,0,0],"sum_hessian":[8.538172E4,4.4512047E4,4.086967E4,2.4872043E3,4.2024844E4,2.5119297E4,1.5750373E4,2.2438555E3,2.4334898E2,3.950028E4,2.5245623E3,1.6217241E4,8.902056E3,1.2573401E4,3.1769722E3,2.0088439E3,2.3501143E2,2.4034898E2,3E0,3.7693527E4,1.8067551E3,3.6945813E2,2.155104E3,8.59117E3,7.6260713E3,5.952855E2,8.3067705E3,1.6162577E3,1.5607145E3,1.841028E3,1.67816E2,1.7926143E2,5.575E1,2.3909898E2,1.25E0,3.4558133E4,3.1353948E3,3.6925E2,1.4375051E3,4.75E0,3.6470813E2,1.1915355E3,9.6356854E2,3.0075024E3,5.5836675E3,4.575E1,7.5803213E3,2.5E0,5.927855E2,6.5728424E1,1.5505292E3],"tree_param":{"num_deleted":"0","num_feature":"18","num_nodes":"51","size_leaf_vector":"1"}},{"base_weights":[-3.3673213E-3,-1.4252801E0,1.5556699E0,6.1128044E-1,-1.5566621E0,1.3843195E0,1.82093E0,8.826299E-1,1.8115659E-1,-1.6689179E0,4.5317376E-1,1.1345732E0,1.8197016E0,1.4808144E-1,1.6902027E0,7.637208E-1,1.6652132E0,4.7544485E-1,-8.3086926E-1,-1.7554104E0,3.2469854E-1,6.3575524E-1,-4.7169793E-1,5.5417615E-1,1.8100078E0,1.5992391E0,1.4588393E-1,1.5498697E0,1.4742468E-1,4.795499E-2,1.1746197E-1,-1.1830237E-1,1.3639575E-1,-1.5902121E-1,4.5701217E-2,1.4858724E-1,-1.0207766E-1,-1.4663295E-1,1.2708013E-2,6.658018E-2,5.010064E-3,1.3208531E-1,4.2956956E-2,-5.610361E-2,1.3287352E-1,-1.4514779E-1,1.4759138E-1,1.0312673E-1,1.4537235E-1,1.3600193E-1,-1.3981716E-1,8.6943045E-2,1.4421372E-1],"categories":[],"categories_nodes":[],"categories_segments":[],"categories_sizes":[],"default_left":[0,0,0,0,0,0,0,0,0,0,0,0,0,0,0,0,0,0,0,0,0,0,0,0,0,0,0,0,0,0,0,0,0,0,0,0,0,0,0,0,0,0,0,0,0,0,0,0,0,0,0,0,0],"id":1,"left_children":[1,3,5,7,9,11,13,15,17,19,21,23,25,-1,27,29,31,33,35,37,39,41,43,45,47,49,-1,51,-1,-1,-1,-1,-1,-1,-1,-1,-1,-1,-1,-1,-1,-1,-1,-1,-1,-1,-1,-1,-1,-1,-1,-1,-1],"loss_changes":[1.8814516E5,1.1877719E4,1.8375625E3,3.1388495E2,9.408547E3,2.6728047E3,5.9351562E1,1.5223572E2,3.1076254E2,6.8104062E3,3.729109E2,6.1283438E3,4.6914062E0,0E0,6.1038086E1,1.6508612E2,2.9597168E1,1.9183836E2,2.8371027E2,5.61575E3,2.1849068E2,1.8399786E2,1.7957224E2,2.5715617E4,2.455664E1,5.75903E1,0E0,1.8073193E2,0E0,0E0,0E0,0E0,0E0,0E0,0E0,0E0,0E0,0E0,0E0,0E0,0E0,0E0,0E0,0E0,0E0,0E0,0E0,0E0,0E0,0E0,0E0,0E0,0E0],"parents":[2147483647,0,0,1,1,2,2,3,3,4,4,5,5,6,6,7,7,8,8,9,9,10,10,11,11,12,12,14,14,15,15,16,16,17,17,18,18,19,19,20,20,21,21,22,22,23,23,24,24,25,25,27,27],"right_children":[2,4,6,8,10,12,14,16,18,20,22,24,26,-1,28,30,32,34,36,38,40,42,44,46,48,50,-1,52,-1,-1,-1,-1,-1,-1,-1,-1,-1,-1,-1,-1,-1,-1,-1,-1,-1,-1,-1,-1,-1,-1,-1,-1,-1],"split_conditions":[1E0,3.915801E2,2E0,5.237145E1,1.8547624E2,1.8197816E2,3.990723E2,4.7910503E1,3.803444E2,4.8647755E1,1.7141695E1,4.6914577E1,1.8383778E2,1.4808144E-1,4.7910503E1,1.0332123E2,4.2286344E0,5.3380745E1,6.234611E0,1.2062034E2,1.6753908E2,3.4962783E0,1.2650989E2,1.17789734E2,4.7910503E1,1.8711882E1,1.4588393E-1,1.7392686E2,1.4742468E-1,4.795499E-2,1.1746197E-1,-1.1830237E-1,1.3639575E-1,-1.5902121E-1,4.5701217E-2,1.4858724E-1,-1.0207766E-1,-1.4663295E-1,1.2708013E-2,6.658018E-2,5.010064E-3,1.3208531E-1,4.2956956E-2,-5.610361E-2,1.3287352E-1,-1.4514779E-1,1.4759138E-1,1.0312673E-1,1.4537235E-1,1.3600193E-1,-1.3981716E-1,8.6943045E-2,1.4421372E-1],"split_indices":[12,1,12,5,0,0,1,3,1,3,4,3,0,0,3,2,7,5,6,2,0,7,10,2,3,4,0,0,0,0,0,0,0,0,0,0,0,0,0,0,0,0,0,0,0,0,0,0,0,0,0,0,0],"split_type":[0,0,0,0,0,0,0,0,0,0,0,0,0,0,0,0,0,0,0,0,0,0,0,0,0,0,0,0,0,0,0,0,0,0,0,0,0,0,0,0,0,0,0,0,0,0,0,0,0,0,0,0,0],"sum_hessian":[8.4869836E4,4.438698E4,4.0482855E4,2.6897249E3,4.1697258E4,2.45989E4,1.5883956E4,1.6486194E3,1.0411056E3,3.9491688E4,2.2055684E3,1.5634278E4,8.964623E3,1.2901425E4,2.9825312E3,1.4328777E3,2.1574161E2,8.069746E2,2.3413095E2,3.7849707E4,1.6419813E3,1.8422059E3,3.633624E2,8.409696E3,7.224583E3,1.6091934E2,8.803703E3,1.5595543E3,1.4229768E3,1.1634441E3,2.6943372E2,2.2405128E0,2.135011E2,2.947705E1,7.7749756E2,3.280868E1,2.0132227E2,3.6376977E4,1.472729E3,5.583856E2,1.0835957E3,1.6196446E2,1.6802416E3,3.2865103E2,3.4711357E1,2.966192E3,5.443504E3,1.0022898E2,7.124354E3,1.56693E2,4.2263436E0,5.526009E2,1.00695337E3],"tree_param":{"num_deleted":"0","num_feature":"18","num_nodes":"53","size_leaf_vector":"1"}},{"base_weights":[-5.3906566E-3,-1.3203454E0,1.4510015E0,6.680009E-1,-1.4428043E0,1.288486E0,1.704974E0,5.5941993E-1,1.5112432E0,-1.5488139E0,4.4014353E-1,1.0597126E0,1.7009734E0,1.3868883E-1,1.5811292E0,9.5578814E-1,3.6485824E-1,1.5903704E0,2.7764085E-1,-1.6478574E0,1.9280799E-1,1.4402088E0,3.3547217E-1,5.336703E-1,1.7005008E0,1.4920732E0,1.3639998E-1,1.4383829E0,1.3805787E-1,7.9216585E-2,-1.5115611E-1,3.2331243E-2,-1.5142845E-1,1.2879959E-1,-9.376616E-2,1.3359539E-1,-1.4467002E-1,-1.3491566E-1,-5.828044E-2,-1.4658695E-1,5.7578687E-2,-1.3247299E-1,1.216357E-1,-6.213259E-2,3.357675E-2,-8.905353E-2,1.1633381E-1,-1.5536475E-1,1.3779801E-1,-1.3878272E-1,1.2591147E-1,7.521227E-2,1.3575715E-1],"categories":[],"categories_nodes":[],"categories_segments":[],"categories_sizes":[],"default_left":[0,0,0,0,0,0,0,0,0,0,0,0,0,0,0,0,0,0,0,0,0,0,0,0,0,0,0,0,0,0,0,0,0,0,0,0,0,0,0,0,0,0,0,0,0,0,0,0,0,0,0,0,0],"id":2,"left_children":[1,3,5,7,9,11,13,15,17,19,21,23,25,-1,27,29,31,33,35,37,39,41,43,45,47,49,-1,51,-1,-1,-1,-1,-1,-1,-1,-1,-1,-1,-1,-1,-1,-1,-1,-1,-1,-1,-1,-1,-1,-1,-1,-1,-1],"loss_changes":[1.5992806E5,1.0686719E4,1.63325E3,2.3233276E2,8.252578E3,2.2786953E3,5.2085938E1,1.7376758E2,2.7859375E1,6.7512812E3,2.302445E2,5.2399023E3,4.705078E0,0E0,5.767285E1,7.4609314E1,1.3521944E2,1.6645874E1,5.7296124E1,1.3125E3,2.2494749E3,5.4323273E1,1.8737524E2,1.2947161E4,5.643535E2,4.788156E1,0E0,1.8812622E2,0E0,0E0,0E0,0E0,0E0,0E0,0E0,0E0,0E0,0E0,0E0,0E0,0E0,0E0,0E0,0E0,0E0,0E0,0E0,0E0,0E0,0E0,0E0,0E0,0E0],"parents":[2147483647,0,0,1,1,2,2,3,3,4,4,5,5,6,6,7,7,8,8,9,9,10,10,11,11,12,12,14,14,15,15,16,16,17,17,18,18,19,19,20,20,21,21,22,22,23,23,24,24,25,25,27,27],"right_children":[2,4,6,8,10,12,14,16,18,20,22,24,26,-1,28,30,32,34,36,38,40,42,44,46,48,50,-1,52,-1,-1,-1,-1,-1,-1,-1,-1,-1,-1,-1,-1,-1,-1,-1,-1,-1,-1,-1,-1,-1,-1,-1,-1,-1],"split_conditions":[1E0,3.8549057E2,2E0,1.8383778E2,1.8547624E2,1.8197816E2,3.990723E2,4.5571583E1,4.251285E2,4.6914577E1,3.8061775E1,4.7910503E1,1.8383778E2,1.3868883E-1,4.6914577E1,4.4580994E2,7.0842255E1,2.0959065E2,8.692654E1,1.2284989E2,1.4E1,1.8684679E2,1.6882635E2,1.1141859E2,1.2E1,9.3210236E1,1.3639998E-1,1.7457549E2,1.3805787E-1,7.9216585E-2,-1.5115611E-1,3.2331243E-2,-1.5142845E-1,1.2879959E-1,-9.376616E-2,1.3359539E-1,-1.4467002E-1,-1.3491566E-1,-5.828044E-2,-1.4658695E-1,5.7578687E-2,-1.3247299E-1,1.216357E-1,-6.213259E-2,3.357675E-2,-8.905353E-2,1.1633381E-1,-1.5536475E-1,1.3779801E-1,-1.3878272E-1,1.2591147E-1,7.521227E-2,1.3575715E-1],"split_indices":[12,1,12,0,0,0,1,5,9,3,3,3,0,0,3,9,5,8,10,10,13,0,8,10,13,10,0,0,0,0,0,0,0,0,0,0,0,0,0,0,0,0,0,0,0,0,0,0,0,0,0,0,0],"split_type":[0,0,0,0,0,0,0,0,0,0,0,0,0,0,0,0,0,0,0,0,0,0,0,0,0,0,0,0,0,0,0,0,0,0,0,0,0,0,0,0,0,0,0,0,0,0,0,0,0,0,0,0,0],"sum_hessian":[8.350743E4,4.3884688E4,3.962274E4,2.5457227E3,4.1338965E4,2.416547E4,1.5457267E4,2.2567883E3,2.8893427E2,3.9135805E4,2.2031614E3,1.5546597E4,8.618874E3,1.2543784E4,2.913482E3,7.4175165E2,1.5150366E3,2.7124643E2,1.7687826E1,3.7030016E4,2.105789E3,2.0753581E2,1.9956255E3,8.5387295E3,7.0078667E3,1.7001271E2,8.448861E3,1.4716189E3,1.441863E3,7.3353E2,8.22162E0,1.4899341E3,2.5102573E1,2.6974734E2,1.4991082E0,1.072736E1,6.9604664E0,3.5537543E4,1.4924712E3,4.342704E2,1.6715186E3,4.7464685E0,2.0278934E2,1.3993495E2,1.8556906E3,3.0614268E3,5.477303E3,4.1498695E1,6.966368E3,3.7046623E0,1.6630804E2,5.0439566E2,9.6722327E2],"tree_param":{"num_deleted":"0","num_feature":"18","num_nodes":"53","size_leaf_vector":"1"}},{"base_weights":[-1.7865996E-3,-1.2261789E0,1.3675665E0,-1.3468746E0,5.010771E-1,1.2119129E0,1.6094426E0,4.1905075E-1,-1.4600111E0,1.4632336E0,3.8873944E-1,9.9781567E-1,1.6054558E0,1.3107935E-1,1.4879024E0,8.6710054E-1,2.114014E-1,-1.5490315E0,2.4475226E-1,1.4829828E0,-9.412859E-2,-6.5631434E-2,5.870858E-1,4.6736345E-1,1.6034471E0,1.4686091E0,1.6134752E0,1.1717607E0,1.5561943E0,7.546833E-2,-2.531835E-2,9.627572E-3,1.2371869E-1,-1.3039324E-1,2.3786973E-2,-1.3843255E-1,5.742584E-2,1.2466769E-1,7.761307E-2,1.2413161E-1,-1.6100673E-2,5.125554E-2,-6.4205304E-2,-1.304833E-1,1.3189201E-1,-1.450239E-1,1.3004132E-1,1.19705096E-1,-1.4243215E-1,8.3550505E-2,1.2913607E-1,-6.838225E-2,1.2753E-1,1.2487525E-1,-1.3739158E-1],"categories":[],"categories_nodes":[],"categories_segments":[],"categories_sizes":[],"default_left":[0,0,0,0,0,0,0,0,0,0,0,0,0,0,0,0,0,0,0,0,0,0,0,0,0,0,0,0,0,0,0,0,0,0,0,0,0,0,0,0,0,0,0,0,0,0,0,0,0,0,0,0,0,0,0],"id":3,"left_children":[1,3,5,7,9,11,13,15,17,19,21,23,25,-1,27,29,31,33,35,37,-1,39,41,43,45,47,49,51,53,-1,-1,-1,-1,-1,-1,-1,-1,-1,-1,-1,-1,-1,-1,-1,-1,-1,-1,-1,-1,-1,-1,-1,-1,-1,-1],"loss_changes":[1.367306E5,8.97634E3,1.4474062E3,8.040711E3,3.034516E2,1.9722969E3,5.076953E1,2.2531567E2,5.739883E3,1.7057373E1,2.2715204E2,4.874506E3,6.689453E0,0E0,6.117627E1,6.95437E1,2.0131445E2,5.368297E3,1.7557998E3,9.772217E0,0E0,1.6848187E2,1.3120874E2,2.005946E4,5.3713086E2,4.478882E1,1.5292969E0,4.485149E2,3.991748E1,0E0,0E0,0E0,0E0,0E0,0E0,0E0,0E0,0E0,0E0,0E0,0E0,0E0,0E0,0E0,0E0,0E0,0E0,0E0,0E0,0E0,0E0,0E0,0E0,0E0,0E0],"parents":[2147483647,0,0,1,1,2,2,3,3,4,4,5,5,6,6,7,7,8,8,9,9,10,10,11,11,12,12,14,14,15,15,16,16,17,17,18,18,19,19,21,21,22,22,23,23,24,24,25,25,26,26,27,27,28,28],"right_children":[2,4,6,8,10,12,14,16,18,20,22,24,26,-1,28,30,32,34,36,38,-1,40,42,44,46,48,50,52,54,-1,-1,-1,-1,-1,-1,-1,-1,-1,-1,-1,-1,-1,-1,-1,-1,-1,-1,-1,-1,-1,-1,-1,-1,-1,-1],"split_conditions":[1E0,1.8383778E2,2E0,3.915801E2,3.8549057E2,1.8197816E2,4.0643906E2,4.581485E1,4.7910503E1,2.1382472E2,1.8807988E2,4.6914577E1,1.8547624E2,1.3107935E-1,1.1E1,1.1715736E1,1.2248137E2,1.2062034E2,1.4E1,5.6097637E1,-9.412859E-2,3.2606E0,4.64785E2,1.17789734E2,1.2E1,5.7624784E0,7.602242E1,1.7347664E2,6.694749E1,7.546833E-2,-2.531835E-2,9.627572E-3,1.2371869E-1,-1.3039324E-1,2.3786973E-2,-1.3843255E-1,5.742584E-2,1.2466769E-1,7.761307E-2,1.2413161E-1,-1.6100673E-2,5.125554E-2,-6.4205304E-2,-1.304833E-1,1.3189201E-1,-1.450239E-1,1.3004132E-1,1.19705096E-1,-1.4243215E-1,8.3550505E-2,1.2913607E-1,-6.838225E-2,1.2753E-1,1.2487525E-1,-1.3739158E-1],"split_indices":[12,0,12,1,1,0,1,5,3,8,0,3,0,0,13,6,2,2,13,5,0,7,1,2,13,7,10,0,5,0,0,0,0,0,0,0,0,0,0,0,0,0,0,0,0,0,0,0,0,0,0,0,0,0,0],"split_type":[0,0,0,0,0,0,0,0,0,0,0,0,0,0,0,0,0,0,0,0,0,0,0,0,0,0,0,0,0,0,0,0,0,0,0,0,0,0,0,0,0,0,0,0,0,0,0,0,0,0,0,0,0,0,0],"sum_hessian":[8.154908E4,4.3053426E4,3.849565E4,4.024167E4,2.811754E3,2.342625E4,1.50694E4,2.42275E3,3.781892E4,2.927098E2,2.5190442E3,1.5174486E4,8.251764E3,1.2152387E4,2.9170137E3,7.662402E2,1.6565099E3,3.5942164E4,1.8767574E3,2.9097122E2,1.7385772E0,7.6568524E2,1.7533589E3,8.090265E3,7.0842207E3,4.669889E2,7.7847744E3,5.214122E2,2.3956016E3,7.2005286E2,4.6187325E1,1.5517649E3,1.0474503E2,3.4433836E4,1.5083284E3,3.621317E2,1.5146257E3,2.5191171E2,3.9059505E1,5.8435368E1,7.072499E2,1.6887511E3,6.46078E1,2.913833E3,5.176432E3,4.4950405E1,7.0392705E3,4.635754E2,3.4134922E0,1.1748141E1,7.7730264E3,8.975182E1,4.3166034E2,2.3926558E3,2.9458942E0],"tree_param":{"num_deleted":"0","num_feature":"18","num_nodes":"55","size_leaf_vector":"1"}},{"base_weights":[-4.8767272E-4,-1.175052E0,1.3035678E0,5.5864406E-1,-1.283713E0,1.1610119E0,1.5314816E0,4.6678418E-1,1.3732818E0,-1.3863333E0,2.9450935E-1,9.6428335E-1,1.5277689E0,1.2475975E-1,1.4082767E0,8.2810944E-1,3.0363107E-1,-1.5022E-1,1.4428815E0,-1.4650334E0,3.0712092E-1,9.3484247E-1,2.1961993E-2,4.883444E-1,1.5249851E0,1.4227911E0,1.2277727E-1,-1.563508E-1,1.4147775E0,7.143076E-2,-5.0560825E-2,3.5168376E-2,-3.0400077E-2,-1.4288653E-1,1.19690366E-1,-1.218758E-1,-6.516809E-2,-1.3188933E-1,5.9455965E-2,9.67303E-2,-1.2064512E-3,-2.0169184E-2,4.5359243E-2,-9.5761746E-2,9.321526E-2,-1.3608748E-1,1.23759925E-1,1.1593128E-1,-1.4208649E-1,1.1357069E-1,-1.5146312E-1],"categories":[],"categories_nodes":[],"categories_segments":[],"categories_sizes":[],"default_left":[0,0,0,0,0,0,0,0,0,0,0,0,0,0,0,0,0,0,0,0,0,0,0,0,0,0,0,0,0,0,0,0,0,0,0,0,0,0,0,0,0,0,0,0,0,0,0,0,0,0,0],"id":4,"left_children":[1,3,5,7,9,11,13,15,17,19,21,23,25,-1,27,29,31,-1,33,35,37,39,41,43,45,47,-1,-1,49,-1,-1,-1,-1,-1,-1,-1,-1,-1,-1,-1,-1,-1,-1,-1,-1,-1,-1,-1,-1,-1,-1],"loss_changes":[1.2169453E5,7.8753594E3,1.2214922E3,1.8390186E2,6.371121E3,1.6700254E3,4.7796875E1,1.3048456E2,5.9137817E1,4.922875E3,4.192458E2,4.0238057E3,3.7128906E0,0E0,6.165088E1,6.575723E1,1.4233371E2,0E0,4.4749023E1,1.3397422E3,1.4008064E3,1.868919E2,2.5202046E2,9.308197E3,4.9433398E2,4.6035645E1,0E0,0E0,4.588623E1,0E0,0E0,0E0,0E0,0E0,0E0,0E0,0E0,0E0,0E0,0E0,0E0,0E0,0E0,0E0,0E0,0E0,0E0,0E0,0E0,0E0,0E0],"parents":[2147483647,0,0,1,1,2,2,3,3,4,4,5,5,6,6,7,7,8,8,9,9,10,10,11,11,12,12,14,14,15,15,16,16,18,18,19,19,20,20,21,21,22,22,23,23,24,24,25,25,28,28],"right_children":[2,4,6,8,10,12,14,16,18,20,22,24,26,-1,28,30,32,-1,34,36,38,40,42,44,46,48,-1,-1,50,-1,-1,-1,-1,-1,-1,-1,-1,-1,-1,-1,-1,-1,-1,-1,-1,-1,-1,-1,-1,-1,-1],"split_conditions":[1E0,3.8549057E2,2E0,4.7910503E1,1.8383778E2,1.8197816E2,4.0643906E2,7E0,1.1E1,4.8647755E1,1.3243427E1,4.6914577E1,1.8547624E2,1.2475975E-1,1.0848809E1,4.1485085E1,5.8498974E1,-1.5022E-1,1.6716978E2,1.17417E2,1.4E1,4.952716E0,1.916674E2,1.0712933E2,1.2E1,1.928591E1,1.2277727E-1,-1.563508E-1,7.4167743E0,7.143076E-2,-5.0560825E-2,3.5168376E-2,-3.0400077E-2,-1.4288653E-1,1.19690366E-1,-1.218758E-1,-6.516809E-2,-1.3188933E-1,5.9455965E-2,9.67303E-2,-1.2064512E-3,-2.0169184E-2,4.5359243E-2,-9.5761746E-2,9.321526E-2,-1.3608748E-1,1.23759925E-1,1.1593128E-1,-1.4208649E-1,1.1357069E-1,-1.5146312E-1],"split_indices":[12,1,12,3,0,0,1,13,13,3,4,3,0,0,4,3,5,0,0,10,13,7,0,10,13,4,0,0,7,0,0,0,0,0,0,0,0,0,0,0,0,0,0,0,0,0,0,0,0,0,0],"split_type":[0,0,0,0,0,0,0,0,0,0,0,0,0,0,0,0,0,0,0,0,0,0,0,0,0,0,0,0,0,0,0,0,0,0,0,0,0,0,0,0,0,0,0,0,0,0,0,0,0,0,0],"sum_hessian":[7.944878E4,4.179977E4,3.7649008E4,2.465078E3,3.933469E4,2.3165504E4,1.4483502E4,2.2166929E3,2.4838493E2,3.6933312E4,2.4013818E3,1.5080142E4,8.085363E3,1.1790771E4,2.6927305E3,6.8829407E2,1.5283988E3,4.6615653E0,2.4372336E2,3.5293258E4,1.6400531E3,7.1622516E2,1.6851566E3,8.15761E3,6.9225317E3,5.1462225E2,7.5707407E3,4.617569E0,2.688113E3,6.5942847E2,2.8865623E1,1.2751332E3,2.532656E2,3.426037E0,2.4029733E2,3.2383605E4,2.909652E3,2.9850943E2,1.3415437E3,5.555419E2,1.6068324E2,1.1216523E3,5.6350433E2,2.337185E3,5.820425E3,4.6400772E1,6.876131E3,5.1096033E2,3.661926E0,2.6847427E3,3.3701935E0],"tree_param":{"num_deleted":"0","num_feature":"18","num_nodes":"51","size_leaf_vector":"1"}},{"base_weights":[7.2357487E-3,-1.1109097E0,1.2450774E0,5.326812E-1,-1.2185574E0,1.1085106E0,1.4650308E0,4.3779755E-1,1.3324789E0,-1.3171353E0,2.561077E-1,9.1805416E-1,1.4607136E0,1.19511455E-1,1.3455304E0,5.304501E-1,1.1432E-3,6.9197977E-1,1.4023094E0,-1.4027433E0,2.4378607E-1,1.1688248E0,1.18563905E-1,4.7206774E-1,1.4602811E0,1.2800183E0,1.1715727E-1,1.1998485E0,1.1986164E-1,4.384651E-3,4.8245434E-2,3.8868893E-2,-5.6147568E-2,1.1357067E-1,-1.6318752E-1,1.15673594E-1,4.998619E-2,-1.17781036E-1,-6.74127E-2,-1.24647565E-1,5.213949E-2,1.0243276E-1,-1.4669164E-1,3.0934075E-2,-1.7572936E-2,-7.534148E-2,9.862337E-2,-1.2842126E-1,1.1836556E-1,-1.3362232E-1,1.07329875E-1,-1.3266203E-2,1.0390613E-1],"categories":[],"categories_nodes":[],"categories_segments":[],"categories_sizes":[],"default_left":[0,0,0,0,0,0,0,0,0,0,0,0,0,0,0,0,0,0,0,0,0,0,0,0,0,0,0,0,0,0,0,0,0,0,0,0,0,0,0,0,0,0,0,0,0,0,0,0,0,0,0,0,0],"id":5,"left_children":[1,3,5,7,9,11,13,15,17,19,21,23,25,-1,27,29,31,33,35,37,39,41,43,45,47,49,-1,51,-1,-1,-1,-1,-1,-1,-1,-1,-1,-1,-1,-1,-1,-1,-1,-1,-1,-1,-1,-1,-1,-1,-1,-1,-1],"loss_changes":[1.0705752E5,7.1909062E3,1.1010703E3,1.890426E2,5.5449453E3,1.5181348E3,4.6476562E1,9.043143E1,1.0860352E1,4.77775E3,2.9999274E2,3.5552354E3,3.515625E0,0E0,5.9283203E1,6.3658325E1,1.3400824E2,5.851045E1,7.1505127E0,1.3184531E3,1.3680586E3,1.0720651E2,1.8859238E2,8.68049E3,3.9474414E2,3.3074005E1,0E0,1.9080774E2,0E0,0E0,0E0,0E0,0E0,0E0,0E0,0E0,0E0,0E0,0E0,0E0,0E0,0E0,0E0,0E0,0E0,0E0,0E0,0E0,0E0,0E0,0E0,0E0,0E0],"parents":[2147483647,0,0,1,1,2,2,3,3,4,4,5,5,6,6,7,7,8,8,9,9,10,10,11,11,12,12,14,14,15,15,16,16,17,17,18,18,19,19,20,20,21,21,22,22,23,23,24,24,25,25,27,27],"right_children":[2,4,6,8,10,12,14,16,18,20,22,24,26,-1,28,30,32,34,36,38,40,42,44,46,48,50,-1,52,-1,-1,-1,-1,-1,-1,-1,-1,-1,-1,-1,-1,-1,-1,-1,-1,-1,-1,-1,-1,-1,-1,-1,-1,-1],"split_conditions":[1E0,3.8549057E2,2E0,1.8383778E2,1.8383778E2,1.8197816E2,3.990723E2,5.8498974E1,3.9397663E1,4.7910503E1,3.835823E1,4.6914577E1,1.8383778E2,1.19511455E-1,4.7910503E1,4.2508607E0,1.1E1,3.6876974E2,1E0,1.1525036E2,1.4E1,1.8E1,4.9067066E1,1.1141859E2,1.2E1,4.361029E2,1.1715727E-1,1.6904758E2,1.1986164E-1,4.384651E-3,4.8245434E-2,3.8868893E-2,-5.6147568E-2,1.1357067E-1,-1.6318752E-1,1.15673594E-1,4.998619E-2,-1.17781036E-1,-6.74127E-2,-1.24647565E-1,5.213949E-2,1.0243276E-1,-1.4669164E-1,3.0934075E-2,-1.7572936E-2,-7.534148E-2,9.862337E-2,-1.2842126E-1,1.1836556E-1,-1.3362232E-1,1.07329875E-1,-1.3266203E-2,1.0390613E-1],"split_indices":[12,1,12,0,0,0,1,5,3,3,3,3,0,0,3,7,13,1,15,10,13,13,5,10,13,1,0,0,0,0,0,0,0,0,0,0,0,0,0,0,0,0,0,0,0,0,0,0,0,0,0,0,0],"split_type":[0,0,0,0,0,0,0,0,0,0,0,0,0,0,0,0,0,0,0,0,0,0,0,0,0,0,0,0,0,0,0,0,0,0,0,0,0,0,0,0,0,0,0,0,0,0,0,0,0,0,0,0,0],"sum_hessian":[7.7346836E4,4.0638277E4,3.670856E4,2.4977688E3,3.8140508E4,2.26509E4,1.4057658E4,2.234256E3,2.635127E2,3.5750758E4,2.3897498E3,1.4703483E4,7.947416E3,1.1313628E4,2.7440303E3,1.8429833E3,3.9127267E2,2.6977674E1,2.3653502E2,3.3892066E4,1.8586926E3,3.119834E2,2.0777664E3,8.068743E3,6.6347407E3,1.6864253E2,7.7787734E3,1.4089982E3,1.3350321E3,2.4433824E2,1.598645E3,2.317721E2,1.5950058E2,2.1682594E1,5.29508E0,2.2315788E2,1.3377142E1,3.0148324E4,3.743742E3,3.4261224E2,1.5160804E3,3.013572E2,1.0626174E1,1.1589341E3,9.1883234E2,2.8225972E3,5.246146E3,4.0970604E1,6.59377E3,2.9152899E0,1.6572723E2,9.5171326E1,1.3138268E3],"tree_param":{"num_deleted":"0","num_feature":"18","num_nodes":"53","size_leaf_vector":"1"}},{"base_weights":[-6.7216E-3,-1.0698388E0,1.1864195E0,4.5541298E-1,-1.1698331E0,1.0390521E0,1.4097118E0,3.6861786E-1,1.3151681E0,-1.2516072E0,5.174293E-1,8.5014343E-1,1.402013E0,1.1505979E-1,1.2957263E0,2.4290714E-1,9.704191E-1,1.3794379E0,-1.431E-1,-1.3417822E0,2.0917453E-1,-1.11594945E-1,1.4501023E0,3.8967764E-1,1.4030322E0,1.2741077E0,1.1281741E-1,1.1583958E0,1.1517829E-1,2.1528592E-2,-1.6731739E-1,8.109036E-2,-1.4355989E-1,-1.0764266E-1,1.1235038E-1,-1.1350615E-1,1.8177368E-2,1.0594434E-1,1.0786582E-2,-1.2095657E-1,9.785083E-2,1.284964E-1,-1.3345356E-1,-1.20340735E-1,1.1783263E-1,-1.2228708E-1,1.13806486E-1,-1.4440235E-1,1.0428903E-1,5.5566978E-2,1.1310688E-1],"categories":[],"categories_nodes":[],"categories_segments":[],"categories_sizes":[],"default_left":[0,0,0,0,0,0,0,0,0,0,0,0,0,0,0,0,0,0,0,0,0,0,0,0,0,0,0,0,0,0,0,0,0,0,0,0,0,0,0,0,0,0,0,0,0,0,0,0,0,0,0],"id":6,"left_children":[1,3,5,7,9,11,13,15,17,19,21,23,25,-1,27,29,31,33,-1,35,37,39,41,43,45,47,-1,49,-1,-1,-1,-1,-1,-1,-1,-1,-1,-1,-1,-1,-1,-1,-1,-1,-1,-1,-1,-1,-1,-1,-1],"loss_changes":[9.383226E4,5.96675E3,1.1454922E3,1.7916983E2,5.065961E3,1.4388008E3,4.320117E1,1.6530344E2,4.642874E1,4.612703E3,9.961741E2,3.5165723E3,5.7460938E0,0E0,5.33916E1,1.1134868E2,4.6951996E1,1.6601837E1,0E0,3.986996E3,1.6866705E2,1.8986947E3,3.3557507E2,1.5468793E4,3.6191602E2,4.2655945E1,0E0,1.6846313E2,0E0,0E0,0E0,0E0,0E0,0E0,0E0,0E0,0E0,0E0,0E0,0E0,0E0,0E0,0E0,0E0,0E0,0E0,0E0,0E0,0E0,0E0,0E0],"parents":[2147483647,0,0,1,1,2,2,3,3,4,4,5,5,6,6,7,7,8,8,9,9,10,10,11,11,12,12,14,14,15,15,16,16,17,17,19,19,20,20,21,21,22,22,23,23,24,24,25,25,27,27],"right_children":[2,4,6,8,10,12,14,16,18,20,22,24,26,-1,28,30,32,34,-1,36,38,40,42,44,46,48,-1,50,-1,-1,-1,-1,-1,-1,-1,-1,-1,-1,-1,-1,-1,-1,-1,-1,-1,-1,-1,-1,-1,-1,-1],"split_conditions":[1E0,3.8549057E2,2E0,4.8647755E1,1.2062034E2,1.8197816E2,3.990723E2,1.0324429E2,1E0,1.8547624E2,1E0,4.6914577E1,1.8547624E2,1.1505979E-1,4.7910503E1,5.0492138E1,4.1985394E1,3.9690815E1,-1.431E-1,4.8647755E1,3.7821526E1,1E0,1.280218E1,1.17789734E2,1.2E1,4.3061765E2,1.1281741E-1,1.7457549E2,1.1517829E-1,2.1528592E-2,-1.6731739E-1,8.109036E-2,-1.4355989E-1,-1.0764266E-1,1.1235038E-1,-1.1350615E-1,1.8177368E-2,1.0594434E-1,1.0786582E-2,-1.2095657E-1,9.785083E-2,1.284964E-1,-1.3345356E-1,-1.20340735E-1,1.1783263E-1,-1.2228708E-1,1.13806486E-1,-1.4440235E-1,1.0428903E-1,5.5566978E-2,1.1310688E-1],"split_indices":[12,1,12,3,2,0,1,2,14,0,14,3,0,0,3,11,3,11,0,3,3,15,6,2,13,1,0,0,0,0,0,0,0,0,0,0,0,0,0,0,0,0,0,0,0,0,0,0,0,0,0],"split_type":[0,0,0,0,0,0,0,0,0,0,0,0,0,0,0,0,0,0,0,0,0,0,0,0,0,0,0,0,0,0,0,0,0,0,0,0,0,0,0,0,0,0,0,0,0,0,0,0,0,0,0],"sum_hessian":[7.397202E4,3.91175E4,3.485452E4,2.4065112E3,3.671099E4,2.1000418E4,1.3854103E4,2.1871409E3,2.1937032E2,3.501426E4,1.6967272E3,1.3814029E4,7.1863887E3,1.1070937E4,2.7831658E3,1.810374E3,3.767668E2,2.1546448E2,3.9058275E0,3.2978555E4,2.0357072E3,1.013841E3,6.8288617E2,7.537899E3,6.2761304E3,4.426177E2,6.743771E3,1.4292141E3,1.3539518E3,1.7911554E3,1.9218624E1,3.7159293E2,5.1738987E0,1.4740473E0,2.1399043E2,3.143505E4,1.5435039E3,1.2618127E2,1.9095259E3,4.946915E2,5.191495E2,6.50792E2,3.2094162E1,2.742493E3,4.7954062E3,4.1062496E1,6.235068E3,3.6298847E0,4.3898782E2,5.0890427E2,9.203098E2],"tree_param":{"num_deleted":"0","num_feature":"18","num_nodes":"51","size_leaf_vector":"1"}},{"base_weights":[-2.0233544E-3,-1.012527E0,1.1427442E0,4.3842307E-1,-1.1231688E0,1.0113231E0,1.3585455E0,6.6019976E-1,1.00541934E-1,-1.2270719E0,2.5999072E-1,8.247905E-1,1.3555143E0,1.11219935E-1,1.2336315E0,5.3071964E-1,1.1954294E0,3.6791003E-1,-9.961662E-1,-1.2965388E0,4.7187957E-1,3.679343E-1,-1.0436137E0,3.9601406E-1,1.3543702E0,1.0933964E0,1.08811185E-1,1.1183703E0,1.450964E0,1.0314993E-1,3.204514E-2,1.55790895E-2,1.04645945E-1,5.736062E-2,-5.3929677E-3,-1.3710523E-1,1.9587826E-3,-1.1044489E-1,1.2053415E-2,6.680958E-2,-1.16928995E-1,6.308472E-2,1.3355916E-2,-1.42527325E-2,-1.5185955E-1,-1.1361467E-1,1.13408476E-1,-1.1707132E-1,1.0985117E-1,9.6139535E-2,-1.4573213E-1,5.319143E-2,1.1093313E-1,1.1668621E-1,-1.3186796E-1],"categories":[],"categories_nodes":[],"categories_segments":[],"categories_sizes":[],"default_left":[0,0,0,0,0,0,0,0,0,0,0,0,0,0,0,0,0,0,0,0,0,0,0,0,0,0,0,0,0,0,0,0,0,0,0,0,0,0,0,0,0,0,0,0,0,0,0,0,0,0,0,0,0,0,0],"id":7,"left_children":[1,3,5,7,9,11,13,15,17,19,21,23,25,-1,27,29,31,33,35,37,39,41,43,45,47,49,-1,51,53,-1,-1,-1,-1,-1,-1,-1,-1,-1,-1,-1,-1,-1,-1,-1,-1,-1,-1,-1,-1,-1,-1,-1,-1,-1,-1],"loss_changes":[8.236649E4,6.0718047E3,9.4541016E2,2.0077765E2,5.050418E3,1.3312207E3,4.8314453E1,1.1149402E2,3.1215155E2,3.8580898E3,3.4599432E2,3.056042E3,7.3535156E0,0E0,6.2656494E1,1.2830426E2,3.5181915E1,1.3007596E2,1.528959E2,3.818504E3,9.0346E2,1.9168884E2,1.387756E2,1.3805875E4,3.2050098E2,4.3737625E1,0E0,2.0361328E2,2.330896E1,0E0,0E0,0E0,0E0,0E0,0E0,0E0,0E0,0E0,0E0,0E0,0E0,0E0,0E0,0E0,0E0,0E0,0E0,0E0,0E0,0E0,0E0,0E0,0E0,0E0,0E0],"parents":[2147483647,0,0,1,1,2,2,3,3,4,4,5,5,6,6,7,7,8,8,9,9,10,10,11,11,12,12,14,14,15,15,16,16,17,17,18,18,19,19,20,20,21,21,22,22,23,23,24,24,25,25,27,27,28,28],"right_children":[2,4,6,8,10,12,14,16,18,20,22,24,26,-1,28,30,32,34,36,38,40,42,44,46,48,50,-1,52,54,-1,-1,-1,-1,-1,-1,-1,-1,-1,-1,-1,-1,-1,-1,-1,-1,-1,-1,-1,-1,-1,-1,-1,-1,-1,-1],"split_conditions":[1E0,3.915801E2,2E0,5.213465E1,1.8383778E2,1.8197816E2,3.990723E2,1.0324429E2,3.803444E2,1.2248137E2,1.8536486E1,4.6914577E1,1.8383778E2,1.11219935E-1,1.17789734E2,9.6499535E1,4.569702E0,1.1E1,1.5925338E1,4.7910503E1,1E0,1.3327138E1,4.645528E1,1.17789734E2,1.2E1,1.8711882E1,1.08811185E-1,4.7910503E1,1E0,1.0314993E-1,3.204514E-2,1.55790895E-2,1.04645945E-1,5.736062E-2,-5.3929677E-3,-1.3710523E-1,1.9587826E-3,-1.1044489E-1,1.2053415E-2,6.680958E-2,-1.16928995E-1,6.308472E-2,1.3355916E-2,-1.42527325E-2,-1.5185955E-1,-1.1361467E-1,1.13408476E-1,-1.1707132E-1,1.0985117E-1,9.6139535E-2,-1.4573213E-1,5.319143E-2,1.1093313E-1,1.1668621E-1,-1.3186796E-1],"split_indices":[12,1,12,5,0,0,1,2,1,2,4,3,0,0,2,2,7,13,4,3,16,4,5,2,13,4,0,3,16,0,0,0,0,0,0,0,0,0,0,0,0,0,0,0,0,0,0,0,0,0,0,0,0,0,0],"split_type":[0,0,0,0,0,0,0,0,0,0,0,0,0,0,0,0,0,0,0,0,0,0,0,0,0,0,0,0,0,0,0,0,0,0,0,0,0,0,0,0,0,0,0,0,0,0,0,0,0,0,0,0,0,0,0],"sum_hessian":[7.120052E4,3.7818062E4,3.338246E4,2.6792742E3,3.513879E4,2.0750979E4,1.2631481E4,1.6169772E3,1.0622971E3,3.26837E4,2.4550894E3,1.3459872E4,7.2911055E3,1.0066444E4,2.5650369E3,1.3036067E3,3.1337045E2,8.54614E2,2.0768307E2,3.1400047E4,1.283652E3,2.268007E3,1.870821E2,7.438781E3,6.0210913E3,1.3054955E2,7.160556E3,1.6801327E3,8.849042E2,1.895931E2,1.1140137E3,3.1982224E1,2.8138824E2,4.7391803E2,3.8069598E2,1.2154333E2,8.613975E1,2.9677092E4,1.7229559E3,1.081114E3,2.0253802E2,7.3237E2,1.5356371E3,9.355287E1,9.3529236E1,2.6777883E3,4.760992E3,3.933217E1,5.9817593E3,1.264378E2,4.1117477E0,6.25825E2,1.0543077E3,8.832638E2,1.6403903E0],"tree_param":{"num_deleted":"0","num_feature":"18","num_nodes":"55","size_leaf_vector":"1"}},{"base_weights":[4.222318E-3,1.1533478E0,-2.6713344E-1,1.181418E0,8.0104834E-1,-5.6180775E-1,1.0464351E0,1.182386E0,-1.21741585E-1,2.9817465E-1,1.0403224E0,-8.613174E-1,1.1494969E0,1.0804546E0,4.883184E-1,1.1996881E0,1.0398585E0,-1.3993527E-1,4.3245906E-1,1.0747465E0,-1.2635255E-1,-1.160166E0,3.852603E-1,1.2555995E0,-1.2840389E0,7.94071E-1,1.1060976E0,-4.7834468E-1,9.419049E-1,9.619578E-2,4.0198017E-2,8.957452E-2,5.972749E-2,4.312263E-2,-1.3691677E-1,8.694609E-2,-1.09585986E-1,-9.9613294E-2,-5.4959137E-2,-1.11995235E-1,6.0833387E-2,1.0891318E-1,-9.1466546E-2,-1.2715992E-1,6.6706374E-2,7.2199896E-2,-2.1556122E-2,8.770541E-2,1.1019141E-1,-9.571581E-2,4.7324657E-2,7.913359E-2,-1.4357126E-1],"categories":[],"categories_nodes":[],"categories_segments":[],"categories_sizes":[],"default_left":[0,0,0,0,0,0,0,0,0,0,0,0,0,0,0,0,0,0,0,0,0,0,0,0,0,0,0,0,0,0,0,0,0,0,0,0,0,0,0,0,0,0,0,0,0,0,0,0,0,0,0,0,0],"id":8,"left_children":[1,3,5,7,9,11,13,15,-1,17,19,21,23,25,27,29,31,-1,33,35,-1,37,39,41,43,45,47,49,51,-1,-1,-1,-1,-1,-1,-1,-1,-1,-1,-1,-1,-1,-1,-1,-1,-1,-1,-1,-1,-1,-1,-1,-1],"loss_changes":[2.1348371E4,1.2838867E2,2.143864E4,3.3492188E1,1.1619635E2,2.3187527E4,1.9215625E2,2.8611328E1,0E0,8.696845E1,6.0828674E1,1.4343121E4,1.7415264E3,6.936133E1,2.5689505E2,2.0152344E1,3.0021973E1,0E0,6.83439E1,2.0617554E1,0E0,1.2481875E3,4.9876855E3,1.64075E3,1.8377118E2,9.129318E1,2.1774414E1,1.4472815E2,5.3307465E1,0E0,0E0,0E0,0E0,0E0,0E0,0E0,0E0,0E0,0E0,0E0,0E0,0E0,0E0,0E0,0E0,0E0,0E0,0E0,0E0,0E0,0E0,0E0,0E0],"parents":[2147483647,0,0,1,1,2,2,3,3,4,4,5,5,6,6,7,7,9,9,10,10,11,11,12,12,13,13,14,14,15,15,16,16,18,18,19,19,21,21,22,22,23,23,24,24,25,25,26,26,27,27,28,28],"right_children":[2,4,6,8,10,12,14,16,-1,18,20,22,24,26,28,30,32,-1,34,36,-1,38,40,42,44,46,48,50,52,-1,-1,-1,-1,-1,-1,-1,-1,-1,-1,-1,-1,-1,-1,-1,-1,-1,-1,-1,-1,-1,-1,-1,-1],"split_conditions":[3.915801E2,6.122783E1,1.8197816E2,5.2704974E2,1.01803894E2,1.2062034E2,1.8711882E1,4.2895654E2,-1.21741585E-1,8.613425E0,4.8671167E2,4.76927E1,1E0,1.8547624E2,1.8807988E2,2.031032E1,5.465108E1,-1.3993527E-1,1.0225874E2,1.3944636E1,-1.2635255E-1,4.4726265E1,1.4E1,1E0,5.0492138E1,1E0,1.2369363E2,1E0,2E1,9.619578E-2,4.0198017E-2,8.957452E-2,5.972749E-2,4.312263E-2,-1.3691677E-1,8.694609E-2,-1.09585986E-1,-9.9613294E-2,-5.4959137E-2,-1.11995235E-1,6.0833387E-2,1.0891318E-1,-9.1466546E-2,-1.2715992E-1,6.6706374E-2,7.2199896E-2,-2.1556122E-2,8.770541E-2,1.1019141E-1,-9.571581E-2,4.7324657E-2,7.913359E-2,-1.4357126E-1],"split_indices":[1,5,0,9,10,2,4,9,0,6,9,11,16,0,0,4,5,0,2,6,0,11,13,17,11,15,2,14,13,0,0,0,0,0,0,0,0,0,0,0,0,0,0,0,0,0,0,0,0,0,0,0,0],"split_type":[0,0,0,0,0,0,0,0,0,0,0,0,0,0,0,0,0,0,0,0,0,0,0,0,0,0,0,0,0,0,0,0,0,0,0,0,0,0,0,0,0,0,0,0,0,0,0,0,0,0,0,0,0],"sum_hessian":[6.8461375E4,1.3077614E4,5.538376E4,1.2110346E4,9.6726843E2,4.5236402E4,1.0147359E4,1.2106573E4,3.7729967E0,3.1257883E2,6.546896E2,3.8498887E4,6.7375146E3,9.563491E3,5.838684E2,1.0789382E4,1.3171908E3,1.8499556E1,2.9407928E2,6.4678046E2,7.909146E0,3.1054176E4,7.4447114E3,6.4564946E3,2.810203E2,7.885743E2,8.774917E3,1.8645319E2,3.9741522E2,1.0746131E4,4.3251442E1,1.0331594E3,2.8403134E2,2.8086606E2,1.3213224E1,6.4415283E2,2.6276484E0,2.6323812E4,4.730364E3,1.2923373E3,6.152374E3,6.1841484E3,2.7234634E2,2.4581578E2,3.520452E1,7.1575354E2,7.282073E1,8.474464E3,3.0045334E2,1.1149866E2,7.495453E1,3.9129538E2,6.119844E0],"tree_param":{"num_deleted":"0","num_feature":"18","num_nodes":"53","size_leaf_vector":"1"}},{"base_weights":[6.1100814E-3,1.0880961E0,-2.5817347E-1,1.1342752E0,8.060715E-1,-5.08863E-1,1.0709502E0,1.1638598E0,1.0480351E0,1.0089151E0,1.6524561E-1,-7.79846E-1,1.0969623E0,-1.2665067E0,1.1889418E0,1.1667839E0,1.4686595E-1,1.0955675E0,3.9417782E-1,-1.436837E-1,1.0212111E0,4.194846E-1,-6.581959E-1,-1.0312358E0,1.189373E-1,1.2021054E0,-1.5440122E0,-1.1939037E-1,-5.625832E-1,1.2179067E0,5.599074E-1,8.872732E-2,9.669905E-2,-1.677241E-1,1.0076453E-1,-1.2473391E-1,8.7847516E-2,5.41658E-2,-3.9375294E-2,8.725184E-2,6.457456E-2,-1.1512583E-1,3.9035525E-2,-9.8690584E-2,1.1183708E-1,-9.2851E-2,-5.4911785E-2,-1.2587016E-2,4.866323E-2,1.04710795E-1,-1.3597457E-1,-1.313638E-1,-6.669706E-2,-1.168004E-1,3.3241536E-2,-1.2561785E-1,9.752749E-2,-9.453859E-2,6.0661156E-2],"categories":[],"categories_nodes":[],"categories_segments":[],"categories_sizes":[],"default_left":[0,0,0,0,0,0,0,0,0,0,0,0,0,0,0,0,0,0,0,0,0,0,0,0,0,0,0,0,0,0,0,0,0,0,0,0,0,0,0,0,0,0,0,0,0,0,0,0,0,0,0,0,0,0,0,0,0,0,0],"id":9,"left_children":[1,3,5,7,9,11,13,15,17,19,21,23,25,27,29,31,33,35,37,-1,39,41,43,45,47,49,51,-1,53,55,57,-1,-1,-1,-1,-1,-1,-1,-1,-1,-1,-1,-1,-1,-1,-1,-1,-1,-1,-1,-1,-1,-1,-1,-1,-1,-1,-1,-1],"loss_changes":[1.895139E4,1.6852832E2,1.7748188E4,2.7296875E1,2.382351E2,1.950136E4,2.3327148E3,2.4549805E1,8.8611084E1,4.9874756E1,9.284146E1,8.663615E3,1.7986597E3,6.381726E1,1.4593164E2,1.8723633E1,6.499138E1,1.962207E1,4.941001E1,0E0,1.9739014E1,4.376577E1,1.25603485E2,1.3362246E3,1.1332397E3,1.9306084E3,1.5913574E1,0E0,8.8728035E1,2.7368164E1,1.2390679E2,0E0,0E0,0E0,0E0,0E0,0E0,0E0,0E0,0E0,0E0,0E0,0E0,0E0,0E0,0E0,0E0,0E0,0E0,0E0,0E0,0E0,0E0,0E0,0E0,0E0,0E0,0E0,0E0],"parents":[2147483647,0,0,1,1,2,2,3,3,4,4,5,5,6,6,7,7,8,8,9,9,10,10,11,11,12,12,13,13,14,14,15,15,16,16,17,17,18,18,20,20,21,21,22,22,23,23,24,24,25,25,26,26,28,28,29,29,30,30],"right_children":[2,4,6,8,10,12,14,16,18,20,22,24,26,28,30,32,34,36,38,-1,40,42,44,46,48,50,52,-1,54,56,58,-1,-1,-1,-1,-1,-1,-1,-1,-1,-1,-1,-1,-1,-1,-1,-1,-1,-1,-1,-1,-1,-1,-1,-1,-1,-1,-1,-1],"split_conditions":[3.990723E2,5.8665047E1,4.7910503E1,5.237145E1,3.803444E2,1.2062034E2,1.4E1,2.0719955E1,3.8549057E2,1.05987215E1,6.694749E1,1.8842955E2,1E0,1.688553E1,6.488857E0,1.4E1,4.1456966E1,9.306479E0,5.205377E0,-1.436837E-1,1E0,1.5156697E2,1.9145222E1,1.774053E2,2.010842E2,1E0,1.8036972E1,-1.1939037E-1,1E1,3.4905457E1,4.8647755E1,8.872732E-2,9.669905E-2,-1.677241E-1,1.0076453E-1,-1.2473391E-1,8.7847516E-2,5.41658E-2,-3.9375294E-2,8.725184E-2,6.457456E-2,-1.1512583E-1,3.9035525E-2,-9.8690584E-2,1.1183708E-1,-9.2851E-2,-5.4911785E-2,-1.2587016E-2,4.866323E-2,1.04710795E-1,-1.3597457E-1,-1.313638E-1,-6.669706E-2,-1.168004E-1,3.3241536E-2,-1.2561785E-1,9.752749E-2,-9.453859E-2,6.0661156E-2],"split_indices":[1,5,3,5,1,2,13,4,1,4,5,8,16,4,7,13,3,4,7,0,16,8,4,8,8,17,4,0,13,11,3,0,0,0,0,0,0,0,0,0,0,0,0,0,0,0,0,0,0,0,0,0,0,0,0,0,0,0,0],"split_type":[0,0,0,0,0,0,0,0,0,0,0,0,0,0,0,0,0,0,0,0,0,0,0,0,0,0,0,0,0,0,0,0,0,0,0,0,0,0,0,0,0,0,0,0,0,0,0,0,0,0,0,0,0,0,0,0,0,0,0],"sum_hessian":[6.627296E4,1.3009303E4,5.3263656E4,1.1176264E4,1.8330385E3,4.4812137E4,8.451519E3,8.312248E3,2.8640156E3,1.3918845E3,4.41154E2,3.8342375E4,6.4697627E3,4.0565326E2,8.045865E3,8.2882705E3,2.3977928E1,2.6692952E3,1.9472061E2,5.4417963E0,1.3864426E3,3.374548E2,1.0369918E2,2.9961885E4,8.380488E3,6.2225728E3,2.4718976E2,3.06261E2,9.939227E1,7.690794E3,3.5507117E2,3.5011653E3,4.787105E3,7.6565347E0,1.6321394E1,1.9521528E0,2.667343E3,1.477884E2,4.693221E1,1.0437317E3,3.4271103E2,1.1277206E1,3.261776E2,8.133642E1,2.236276E1,2.1784734E4,8.177151E3,5.3568438E3,3.023645E3,6.002252E3,2.2032098E2,2.1605775E2,3.1132002E1,5.1577003E1,4.781527E1,2.7101073E0,7.688084E3,3.5797752E1,3.192734E2],"tree_param":{"num_deleted":"0","num_feature":"18","num_nodes":"59","size_leaf_vector":"1"}},{"base_weights":[5.117912E-4,-9.479544E-1,1.0663223E0,-1.0519545E0,2.3289856E-1,1.2821013E0,9.6446806E-1,1.0409269E-1,-1.1412177E0,3.348861E-1,-8.8129205E-1,1.1697066E0,1.0331401E-1,7.7437395E-1,1.2939109E0,3.168269E-1,-2.0929398E-1,-1.2202879E0,1.9796427E-1,9.516164E-1,2.3125625E-1,-7.8591526E-2,-1.684042E0,1.9631982E0,1.1106596E0,4.8269564E-1,1.2847196E0,1.0954831E0,1.2975787E0,2.721924E-2,-1.8976405E-1,-1.04135066E-1,-3.1412097E-3,-1.01207845E-1,-2.813988E-2,-2.8594716E-2,8.4104165E-2,3.2532968E-2,9.4550185E-2,3.8907276E-3,4.8720397E-2,-1.3672811E-1,7.953358E-2,-1.12926126E-1,-1.4597283E-1,2.0892085E-1,6.460406E-2,6.2380537E-2,9.994914E-2,-1.16112195E-1,6.6352345E-2,1.0434425E-1,-2.9135406E-2,9.8608635E-2,-2.0023638E-1,1.0435721E-1,1.01019464E-1],"categories":[],"categories_nodes":[],"categories_segments":[],"categories_sizes":[],"default_left":[0,0,0,0,0,0,0,0,0,0,0,0,0,0,0,0,0,0,0,0,0,0,0,0,0,0,0,0,0,0,0,0,0,0,0,0,0,0,0,0,0,0,0,0,0,0,0,0,0,0,0,0,0,0,0,0,0],"id":10,"left_children":[1,3,5,7,9,11,13,15,17,19,21,23,-1,25,27,29,31,33,35,37,39,41,43,45,47,49,51,53,55,-1,-1,-1,-1,-1,-1,-1,-1,-1,-1,-1,-1,-1,-1,-1,-1,-1,-1,-1,-1,-1,-1,-1,-1,-1,-1,-1,-1],"loss_changes":[6.452908E4,4.148299E3,6.59375E2,3.2034922E3,3.110597E2,8.588867E0,1.2780078E3,1.4847221E2,3.0517227E3,1.5995425E2,1.4782268E2,3.2899048E1,0E0,1.9275312E3,4.015625E0,8.4309204E1,1.6724185E2,1.0585977E3,7.622363E2,4.4719727E1,1.4807959E2,2.0435338E2,1.8210144E0,3.5766373E1,3.1115479E1,5.5293193E3,1.5257324E2,7.3160675E1,1.11328125E-1,0E0,0E0,0E0,0E0,0E0,0E0,0E0,0E0,0E0,0E0,0E0,0E0,0E0,0E0,0E0,0E0,0E0,0E0,0E0,0E0,0E0,0E0,0E0,0E0,0E0,0E0,0E0,0E0],"parents":[2147483647,0,0,1,1,2,2,3,3,4,4,5,5,6,6,7,7,8,8,9,9,10,10,11,11,13,13,14,14,15,15,16,16,17,17,18,18,19,19,20,20,21,21,22,22,23,23,24,24,25,25,26,26,27,27,28,28],"right_children":[2,4,6,8,10,12,14,16,18,20,22,24,-1,26,28,30,32,34,36,38,40,42,44,46,48,50,52,54,56,-1,-1,-1,-1,-1,-1,-1,-1,-1,-1,-1,-1,-1,-1,-1,-1,-1,-1,-1,-1,-1,-1,-1,-1,-1,-1,-1,-1],"split_conditions":[1E0,1.8197816E2,3.990723E2,3.915801E2,1.8536486E1,2E0,1.8197816E2,5.22965E1,1.17789734E2,4.284232E2,4.645528E1,3.981598E1,1.0331401E-1,1.17789734E2,1.8383778E2,2.010842E2,5.4853935E1,5.0830456E1,1E0,9.996056E1,1.916674E2,4.417611E1,1.8547624E2,1.0008496E2,1.2E1,1.4E1,1E0,4.5398062E2,1E0,2.721924E-2,-1.8976405E-1,-1.04135066E-1,-3.1412097E-3,-1.01207845E-1,-2.813988E-2,-2.8594716E-2,8.4104165E-2,3.2532968E-2,9.4550185E-2,3.8907276E-3,4.8720397E-2,-1.3672811E-1,7.953358E-2,-1.12926126E-1,-1.4597283E-1,2.0892085E-1,6.460406E-2,6.2380537E-2,9.994914E-2,-1.16112195E-1,6.6352345E-2,1.0434425E-1,-2.9135406E-2,9.8608635E-2,-2.0023638E-1,1.0435721E-1,1.01019464E-1],"split_indices":[12,0,1,1,4,12,0,5,2,1,5,5,0,2,0,8,5,11,14,2,0,5,0,10,13,13,16,1,15,0,0,0,0,0,0,0,0,0,0,0,0,0,0,0,0,0,0,0,0,0,0,0,0,0,0,0,0],"split_type":[0,0,0,0,0,0,0,0,0,0,0,0,0,0,0,0,0,0,0,0,0,0,0,0,0,0,0,0,0,0,0,0,0,0,0,0,0,0,0,0,0,0,0,0,0,0,0,0,0,0,0,0,0,0,0,0,0],"sum_hessian":[6.3832227E4,3.377549E4,3.005674E4,3.1041691E4,2.7337957E3,9.634468E3,2.0422271E4,2.2250415E3,2.881665E4,2.5051829E3,2.2861273E2,7.477082E2,8.886759E3,1.29520625E4,7.4702095E3,1.3253511E3,8.996904E2,2.7210154E4,1.6064965E3,3.5921448E2,2.1459685E3,1.1485885E2,1.13753876E2,4.955292E1,6.981553E2,8.242923E3,4.7091396E3,1.4101564E2,7.329194E3,1.314776E3,1.0575045E1,1.2027795E2,7.7941254E2,2.587475E4,1.3354026E3,9.7348267E2,6.330138E2,1.0751851E2,2.5169595E2,1.4473687E3,6.985998E2,4.5344986E1,6.951386E1,4.248072E1,7.1273155E1,3.0937405E1,1.8615517E1,2.0816501E2,4.899903E2,1.2525342E3,6.990389E3,4.6540737E3,5.5065876E1,1.3647258E2,4.543069E0,6.0890205E3,1.2401735E3],"tree_param":{"num_deleted":"0","num_feature":"18","num_nodes":"57","size_leaf_vector":"1"}},{"base_weights":[6.7272084E-3,-8.9161974E-1,1.031777E0,-9.9906754E-1,3.0651158E-1,9.152447E-1,1.2284434E0,-1.0906261E0,2.3558532E-1,3.84161E-1,-7.07072E-1,7.316129E-1,1.253688E0,1.0105397E-1,1.1001538E0,-1.1736181E0,2.2340289E-1,-1.1436044E0,5.37079E-1,9.8623496E-1,2.81849E-1,2.1423076E-1,-1.3575225E0,2.9567733E-1,1.2540447E0,1.0090879E0,1.2575779E0,9.291308E-1,1.0242429E-1,-4.743381E-3,-1.01389304E-1,3.8229197E-2,-1.0221766E-1,6.873188E-2,-1.09169036E-1,5.6008525E-2,-2.5997495E-2,8.181416E-2,-1.5092923E-1,5.208581E-2,9.419713E-3,8.4971674E-2,-1.3094631E-1,-1.3796546E-1,4.8044384E-2,-1.0120195E-1,9.97856E-2,-1.02751456E-1,1.0163788E-1,9.3543984E-2,-1.7111868E-1,1.00694485E-1,8.094352E-2,3.1787414E-2,9.945496E-2],"categories":[],"categories_nodes":[],"categories_segments":[],"categories_sizes":[],"default_left":[0,0,0,0,0,0,0,0,0,0,0,0,0,0,0,0,0,0,0,0,0,0,0,0,0,0,0,0,0,0,0,0,0,0,0,0,0,0,0,0,0,0,0,0,0,0,0,0,0,0,0,0,0,0,0],"id":11,"left_children":[1,3,5,7,9,11,13,15,17,19,21,23,25,-1,27,29,31,33,35,37,39,41,43,45,47,49,51,53,-1,-1,-1,-1,-1,-1,-1,-1,-1,-1,-1,-1,-1,-1,-1,-1,-1,-1,-1,-1,-1,-1,-1,-1,-1,-1,-1],"loss_changes":[5.6268688E4,4.1926406E3,6.529531E2,3.378588E3,2.1126556E2,1.1130996E3,4.591211E1,3.0343867E3,8.588759E2,1.5314972E2,1.14818436E2,2.646621E3,4.7285156E0,0E0,6.873193E1,2.7337734E3,6.322755E2,1.6520154E2,2.3836215E2,3.9763123E1,1.2900276E2,1.2722975E2,8.1645874E1,9.413575E3,2.2209668E2,5.4821587E1,4.0820312E-1,1.9455304E2,0E0,0E0,0E0,0E0,0E0,0E0,0E0,0E0,0E0,0E0,0E0,0E0,0E0,0E0,0E0,0E0,0E0,0E0,0E0,0E0,0E0,0E0,0E0,0E0,0E0,0E0,0E0],"parents":[2147483647,0,0,1,1,2,2,3,3,4,4,5,5,6,6,7,7,8,8,9,9,10,10,11,11,12,12,14,14,15,15,16,16,17,17,18,18,19,19,20,20,21,21,22,22,23,23,24,24,25,25,26,26,27,27],"right_children":[2,4,6,8,10,12,14,16,18,20,22,24,26,-1,28,30,32,34,36,38,40,42,44,46,48,50,52,54,-1,-1,-1,-1,-1,-1,-1,-1,-1,-1,-1,-1,-1,-1,-1,-1,-1,-1,-1,-1,-1,-1,-1,-1,-1,-1,-1],"split_conditions":[1E0,1.8383778E2,2E0,4.6914577E1,1.8536486E1,1.8197816E2,4.0643906E2,1.17789734E2,1.4E1,4.284232E2,4.475586E0,4.6914577E1,1.8383778E2,1.0105397E-1,4.6914577E1,3.990723E2,1E0,3.8549057E2,6.212774E0,2.1382472E2,1.3327138E1,4.5973885E1,6.314984E0,1.17789734E2,1.2E1,4.5398062E2,1.4289321E1,1.7466394E2,1.0242429E-1,-4.743381E-3,-1.01389304E-1,3.8229197E-2,-1.0221766E-1,6.873188E-2,-1.09169036E-1,5.6008525E-2,-2.5997495E-2,8.181416E-2,-1.5092923E-1,5.208581E-2,9.419713E-3,8.4971674E-2,-1.3094631E-1,-1.3796546E-1,4.8044384E-2,-1.0120195E-1,9.97856E-2,-1.02751456E-1,1.0163788E-1,9.3543984E-2,-1.7111868E-1,1.00694485E-1,8.094352E-2,3.1787414E-2,9.945496E-2],"split_indices":[12,0,12,3,4,0,1,2,13,1,7,3,0,0,3,1,17,1,7,8,4,5,7,2,13,1,6,0,0,0,0,0,0,0,0,0,0,0,0,0,0,0,0,0,0,0,0,0,0,0,0,0,0,0,0],"split_type":[0,0,0,0,0,0,0,0,0,0,0,0,0,0,0,0,0,0,0,0,0,0,0,0,0,0,0,0,0,0,0,0,0,0,0,0,0,0,0,0,0,0,0,0,0,0,0,0,0,0,0,0,0,0,0],"sum_hessian":[6.1103137E4,3.2564209E4,2.8538928E4,2.988436E4,2.6798489E3,1.7923955E4,1.0614974E4,2.7821322E4,2.0630374E3,2.4897344E3,1.9011449E2,1.162153E4,6.302425E3,8.346515E3,2.268459E3,2.616866E4,1.6526637E3,3.6958212E2,1.6934552E3,3.6037872E2,2.1293557E3,7.895405E1,1.11160446E2,6.336062E3,5.2854683E3,1.0273666E2,6.1996885E3,1.1668658E3,1.1015931E3,2.0308517E3,2.4137807E4,1.4137025E3,2.3896127E2,3.644397E1,3.3313815E2,1.4242866E3,2.6916855E2,3.5650055E2,3.8781924E0,6.5428217E2,1.4750735E3,5.444199E1,2.4512056E1,9.3713E1,1.744745E1,2.3998914E3,3.9361707E3,3.3491375E1,5.251977E3,9.83595E1,4.3771534E0,6.167884E3,3.180441E1,4.3409045E2,7.327754E2],"tree_param":{"num_deleted":"0","num_feature":"18","num_nodes":"55","size_leaf_vector":"1"}},{"base_weights":[-6.829559E-4,-8.66433E-1,1.0039448E0,2.4427067E-1,-9.654864E-1,1.2286438E0,8.977803E-1,5.976953E-1,4.7435757E-2,-1.0675427E0,1.673171E-1,1.1183938E0,9.901977E-2,7.096011E-1,1.2265494E0,8.4775406E-1,3.1866893E-1,-1.9666955E-2,1.1686904E0,-1.1342821E0,1.3245016E-1,-1.4459975E-1,2.2215481E-1,1.9810454E0,1.0217551E0,4.0830836E-1,1.2322065E0,1.1406211E0,1.2327691E0,4.3934274E-2,9.284554E-2,4.1330975E-2,-7.196126E-2,2.5158297E-2,-2.2934787E-2,-1.6671863E-1,1.0244383E-1,-9.5385894E-2,-1.8237118E-2,-3.3570945E-2,7.499427E-2,5.8964908E-2,6.3844835E-3,2.00676E-1,7.719918E-2,8.521325E-2,-3.107846E-2,-1.0736321E-1,5.9017267E-2,9.962683E-2,-2.6026743E-2,-1.5725014E-1,9.30997E-2,6.56788E-2,9.865414E-2],"categories":[],"categories_nodes":[],"categories_segments":[],"categories_sizes":[],"default_left":[0,0,0,0,0,0,0,0,0,0,0,0,0,0,0,0,0,0,0,0,0,0,0,0,0,0,0,0,0,0,0,0,0,0,0,0,0,0,0,0,0,0,0,0,0,0,0,0,0,0,0,0,0,0,0],"id":12,"left_children":[1,3,5,7,9,11,13,15,17,19,21,23,-1,25,27,29,31,33,35,37,39,-1,41,43,45,47,49,51,53,-1,-1,-1,-1,-1,-1,-1,-1,-1,-1,-1,-1,-1,-1,-1,-1,-1,-1,-1,-1,-1,-1,-1,-1,-1,-1],"loss_changes":[5.048023E4,3.4300195E3,6.397637E2,1.7759708E2,3.3091816E3,7.265625E0,1.1281182E3,6.3451538E1,1.23494675E2,2.1029766E3,2.5666632E2,5.3634705E1,0E0,1.827273E3,2.1445312E0,4.429074E1,1.0494499E2,1.3832967E2,3.6389526E1,1.3081797E3,6.155874E2,0E0,1.6876678E2,3.305072E1,3.729547E1,4.247253E3,8.719971E1,3.5449524E1,2.5390625E-2,0E0,0E0,0E0,0E0,0E0,0E0,0E0,0E0,0E0,0E0,0E0,0E0,0E0,0E0,0E0,0E0,0E0,0E0,0E0,0E0,0E0,0E0,0E0,0E0,0E0,0E0],"parents":[2147483647,0,0,1,1,2,2,3,3,4,4,5,5,6,6,7,7,8,8,9,9,10,10,11,11,13,13,14,14,15,15,16,16,17,17,18,18,19,19,20,20,22,22,23,23,24,24,25,25,26,26,27,27,28,28],"right_children":[2,4,6,8,10,12,14,16,18,20,22,24,-1,26,28,30,32,34,36,38,40,-1,42,44,46,48,50,52,54,-1,-1,-1,-1,-1,-1,-1,-1,-1,-1,-1,-1,-1,-1,-1,-1,-1,-1,-1,-1,-1,-1,-1,-1,-1,-1],"split_conditions":[1E0,3.915801E2,3.990723E2,4.6772346E1,1.8383778E2,2E0,1.8197816E2,1.4419293E1,1.2248137E2,1.2062034E2,1.6144641E2,3.981598E1,9.901977E-2,1.2062034E2,1.8547624E2,1.7167863E2,1.0974152E1,1E1,5.0743076E1,5.0492138E1,1E0,-1.4459975E-1,1.2671963E1,1.0008496E2,6.790066E1,1.4E1,1E0,4.3061765E2,1.4822617E2,4.3934274E-2,9.284554E-2,4.1330975E-2,-7.196126E-2,2.5158297E-2,-2.2934787E-2,-1.6671863E-1,1.0244383E-1,-9.5385894E-2,-1.8237118E-2,-3.3570945E-2,7.499427E-2,5.8964908E-2,6.3844835E-3,2.00676E-1,7.719918E-2,8.521325E-2,-3.107846E-2,-1.0736321E-1,5.9017267E-2,9.962683E-2,-2.6026743E-2,-1.5725014E-1,9.30997E-2,6.56788E-2,9.865414E-2],"split_indices":[12,1,1,5,0,12,0,4,2,2,8,5,0,2,0,0,6,13,5,11,14,0,4,10,5,13,17,1,8,0,0,0,0,0,0,0,0,0,0,0,0,0,0,0,0,0,0,0,0,0,0,0,0,0,0],"split_type":[0,0,0,0,0,0,0,0,0,0,0,0,0,0,0,0,0,0,0,0,0,0,0,0,0,0,0,0,0,0,0,0,0,0,0,0,0,0,0,0,0,0,0,0,0,0,0,0,0,0,0,0,0,0,0],"sum_hessian":[5.80375E4,3.1173498E4,2.6864002E4,2.552326E3,2.8621172E4,8.61648E3,1.8247521E4,9.122713E2,1.6400547E3,2.6255797E4,2.3653748E3,6.6664795E2,7.9498325E3,1.1607078E4,6.640443E3,4.8003427E2,4.3223703E2,1.548373E3,9.168162E1,2.4872527E4,1.3832688E3,6.3044827E1,2.3023298E3,6.5193634E1,6.014543E2,7.363595E3,4.243483E3,4.606582E2,6.1797847E3,2.470171E2,2.3301718E2,3.7230872E2,5.992832E1,6.876595E2,8.6071356E2,2.4619007E0,8.921971E1,2.3375238E4,1.4972898E3,8.2080554E2,5.6246326E2,4.9773517E2,1.8045947E3,4.1949875E1,2.3243757E1,5.8373035E2,1.7723974E1,1.1658148E3,6.197781E3,4.2082114E3,3.5271835E1,2.7833948E0,4.5787482E2,8.105613E0,6.171679E3],"tree_param":{"num_deleted":"0","num_feature":"18","num_nodes":"55","size_leaf_vector":"1"}},{"base_weights":[-7.649675E-3,-8.387414E-1,9.688201E-1,-9.412535E-1,1.8587205E-1,1.201843E0,8.590751E-1,-1.0397629E0,2.7689213E-1,1.0900292E0,1.0407389E-1,1.0497909E0,9.7239405E-2,6.7002094E-1,1.1982232E0,6.4600836E-3,-1.1387931E0,-1.0862064E0,5.5703557E-1,1.1186402E0,-1.2419589E-1,1.1534652E0,4.0868416E-2,7.3207897E-1,1.2053598E0,1.9637832E-1,1.210291E0,1.1084365E0,1.204945E0,1.362894E-2,-3.4965266E-2,-9.7858235E-2,1.4355862E-2,7.086252E-2,-1.0469196E-1,6.526995E-2,4.1025975E-3,9.1839366E-2,-1.1090366E-1,-1.4658846E-1,1.0056286E-1,7.274786E-2,-3.2740496E-3,7.4125476E-2,-1.3527791E-1,-4.0451195E-2,1.01739995E-1,-1.13269925E-1,9.516714E-2,-1.01197466E-1,9.795823E-2,-1.2154331E-1,8.988634E-2,9.7017035E-2,9.3260184E-2],"categories":[],"categories_nodes":[],"categories_segments":[],"categories_sizes":[],"default_left":[0,0,0,0,0,0,0,0,0,0,0,0,0,0,0,0,0,0,0,0,0,0,0,0,0,0,0,0,0,0,0,0,0,0,0,0,0,0,0,0,0,0,0,0,0,0,0,0,0,0,0,0,0,0,0],"id":13,"left_children":[1,3,5,7,9,11,13,15,17,19,21,23,-1,25,27,29,31,33,35,37,-1,39,41,43,45,47,49,51,53,-1,-1,-1,-1,-1,-1,-1,-1,-1,-1,-1,-1,-1,-1,-1,-1,-1,-1,-1,-1,-1,-1,-1,-1,-1,-1],"loss_changes":[4.4679035E4,3.1240742E3,6.4631055E2,3.2446445E3,2.0000456E2,1.55390625E1,1.1028047E3,2.5916523E3,7.733474E2,1.8700409E1,1.6460631E2,3.2467773E1,0E0,2.8284111E3,2.3828125E0,1.5738278E2,2.543664E3,1.5263925E2,2.197904E2,1.7954834E1,0E0,4.5903015E1,1.6643672E2,1.0728863E2,5.192047E1,9.435561E3,1.8287207E2,1.9273987E1,3.2617188E-1,0E0,0E0,0E0,0E0,0E0,0E0,0E0,0E0,0E0,0E0,0E0,0E0,0E0,0E0,0E0,0E0,0E0,0E0,0E0,0E0,0E0,0E0,0E0,0E0,0E0,0E0],"parents":[2147483647,0,0,1,1,2,2,3,3,4,4,5,5,6,6,7,7,8,8,9,9,10,10,11,11,13,13,14,14,15,15,16,16,17,17,18,18,19,19,21,21,22,22,23,23,24,24,25,25,26,26,27,27,28,28],"right_children":[2,4,6,8,10,12,14,16,18,20,22,24,-1,26,28,30,32,34,36,38,-1,40,42,44,46,48,50,52,54,-1,-1,-1,-1,-1,-1,-1,-1,-1,-1,-1,-1,-1,-1,-1,-1,-1,-1,-1,-1,-1,-1,-1,-1,-1,-1],"split_conditions":[1E0,1.8197816E2,3.990723E2,4.6914577E1,3.8061775E1,2E0,1.8197816E2,3.990723E2,1.4E1,1.2349478E1,3.438837E0,1.2E1,9.7239405E-2,4.6914577E1,1.8547624E2,4.041775E2,1.2062034E2,3.8549057E2,5.428366E0,6.035446E0,-1.2419589E-1,3.9397663E1,3.8549057E2,1.081795E1,9.824051E1,1.17789734E2,1.2E1,4.2743008E2,1E0,1.362894E-2,-3.4965266E-2,-9.7858235E-2,1.4355862E-2,7.086252E-2,-1.0469196E-1,6.526995E-2,4.1025975E-3,9.1839366E-2,-1.1090366E-1,-1.4658846E-1,1.0056286E-1,7.274786E-2,-3.2740496E-3,7.4125476E-2,-1.3527791E-1,-4.0451195E-2,1.01739995E-1,-1.13269925E-1,9.516714E-2,-1.01197466E-1,9.795823E-2,-1.2154331E-1,8.988634E-2,9.7017035E-2,9.3260184E-2],"split_indices":[12,0,1,3,3,12,0,1,13,6,7,13,0,3,0,9,2,1,7,7,0,3,1,6,2,2,13,1,15,0,0,0,0,0,0,0,0,0,0,0,0,0,0,0,0,0,0,0,0,0,0,0,0,0,0],"split_type":[0,0,0,0,0,0,0,0,0,0,0,0,0,0,0,0,0,0,0,0,0,0,0,0,0,0,0,0,0,0,0,0,0,0,0,0,0,0,0,0,0,0,0,0,0,0,0,0,0,0,0,0,0,0,0],"sum_hessian":[5.505291E4,2.974042E4,2.5312488E4,2.7035602E4,2.704818E3,8.101184E3,1.7211305E4,2.5012992E4,2.0226107E3,2.2337817E2,2.48144E3,6.737503E2,7.4274336E3,1.1052943E4,6.1583613E3,2.1629604E3,2.2850031E4,3.443285E2,1.6782822E3,2.21556E2,1.8221796E0,1.3998813E2,2.341452E3,2.2333942E2,4.5041092E2,5.890361E3,5.162583E3,4.4047766E2,5.7178833E3,1.5797804E3,5.8318005E2,2.1474629E4,1.3754021E3,3.46013E1,3.097272E2,1.1097245E3,5.6855774E2,2.1952538E2,2.030613E0,4.133462E0,1.3585466E2,2.0066768E2,2.1407842E3,2.0731648E2,1.6022924E1,1.6576918E1,4.3383398E2,2.245262E3,3.6450986E3,2.8917976E1,5.133665E3,1.9546663E0,4.3852298E2,4.747064E3,9.708197E2],"tree_param":{"num_deleted":"0","num_feature":"18","num_nodes":"55","size_leaf_vector":"1"}},{"base_weights":[1.3139559E-3,-8.0149037E-1,9.524317E-1,-9.0163517E-1,2.8635275E-1,8.359179E-1,1.154577E0,1.8912232E-1,-1.0090903E0,1.1558087E0,2.135866E-1,6.633148E-1,1.1733699E0,9.5601015E-2,1.0041988E0,1.1995262E-1,1.0170276E0,-1.1068356E0,1.5751466E-1,-1.1620544E-1,1.1980665E0,-3.0937552E-1,3.382135E-1,2.3316537E-1,1.1841565E0,1.1835473E0,1.1200067E0,8.086482E-1,1.2079829E0,1.5805937E-2,-4.4732153E-2,8.673542E-2,-1.4075695E-1,-9.51265E-2,4.3281126E-3,-1.0243322E-1,3.5410505E-2,9.85282E-2,-1.2625322E-1,-1.5921623E-1,-4.3148086E-3,4.3260362E-2,6.2292344E-3,-9.176272E-2,9.273316E-2,-9.623231E-2,9.597987E-2,7.688573E-2,9.4798505E-2,-2.5703654E-1,9.053012E-2,2.7847845E-2,9.616343E-2,9.6945606E-2,7.173145E-2],"categories":[],"categories_nodes":[],"categories_segments":[],"categories_sizes":[],"default_left":[0,0,0,0,0,0,0,0,0,0,0,0,0,0,0,0,0,0,0,0,0,0,0,0,0,0,0,0,0,0,0,0,0,0,0,0,0,0,0,0,0,0,0,0,0,0,0,0,0,0,0,0,0,0,0],"id":14,"left_children":[1,3,5,7,9,11,13,15,17,19,21,23,25,-1,27,29,31,33,35,-1,37,39,41,43,45,47,49,51,53,-1,-1,-1,-1,-1,-1,-1,-1,-1,-1,-1,-1,-1,-1,-1,-1,-1,-1,-1,-1,-1,-1,-1,-1,-1,-1],"loss_changes":[4.021098E4,3.1113965E3,5.667637E2,3.0652441E3,1.5210756E2,8.9006445E2,5.2375977E1,1.3422514E2,2.7147383E3,2.2214218E1,1.4501321E2,2.2672856E3,1.484375E0,0E0,7.367822E1,1.143011E2,3.5615982E1,2.0973672E3,7.5544257E2,0E0,1.9012909E1,1.8382869E2,9.466133E1,7.0875283E3,1.7182178E2,2.421875E-1,4.6302124E1,1.7333795E2,6.958008E-3,0E0,0E0,0E0,0E0,0E0,0E0,0E0,0E0,0E0,0E0,0E0,0E0,0E0,0E0,0E0,0E0,0E0,0E0,0E0,0E0,0E0,0E0,0E0,0E0,0E0,0E0],"parents":[2147483647,0,0,1,1,2,2,3,3,4,4,5,5,6,6,7,7,8,8,9,9,10,10,11,11,12,12,14,14,15,15,16,16,17,17,18,18,20,20,21,21,22,22,23,23,24,24,25,25,26,26,27,27,28,28],"right_children":[2,4,6,8,10,12,14,16,18,20,22,24,26,-1,28,30,32,34,36,-1,38,40,42,44,46,48,50,52,54,-1,-1,-1,-1,-1,-1,-1,-1,-1,-1,-1,-1,-1,-1,-1,-1,-1,-1,-1,-1,-1,-1,-1,-1,-1,-1],"split_conditions":[1E0,1.8547624E2,2E0,3.915801E2,3.791808E1,1.8383778E2,4.0643906E2,4.8647755E1,4.6914577E1,1.8684679E2,3.714793E1,4.6914577E1,1E0,9.5601015E-2,4.6914577E1,4.5446903E1,6.122783E1,1.17789734E2,1.4E1,-1.1620544E-1,4.2167515E1,1.7659119E2,4.8993713E1,1.17789734E2,1.2E1,3.6876974E2,3.8957672E0,1.8383778E2,7.1710715E0,1.5805937E-2,-4.4732153E-2,8.673542E-2,-1.4075695E-1,-9.51265E-2,4.3281126E-3,-1.0243322E-1,3.5410505E-2,9.85282E-2,-1.2625322E-1,-1.5921623E-1,-4.3148086E-3,4.3260362E-2,6.2292344E-3,-9.176272E-2,9.273316E-2,-9.623231E-2,9.597987E-2,7.688573E-2,9.4798505E-2,-2.5703654E-1,9.053012E-2,2.7847845E-2,9.616343E-2,9.6945606E-2,7.173145E-2],"split_indices":[12,0,12,1,3,0,1,3,3,0,11,3,15,0,3,11,5,2,13,0,11,8,5,2,13,1,7,0,7,0,0,0,0,0,0,0,0,0,0,0,0,0,0,0,0,0,0,0,0,0,0,0,0,0,0],"split_type":[0,0,0,0,0,0,0,0,0,0,0,0,0,0,0,0,0,0,0,0,0,0,0,0,0,0,0,0,0,0,0,0,0,0,0,0,0,0,0,0,0,0,0,0,0,0,0,0,0,0,0,0,0,0,0],"sum_hessian":[5.2660406E4,2.8556795E4,2.410361E4,2.6149676E4,2.4071196E3,1.5293681E4,8.809929E3,2.345021E3,2.3804656E4,1.8474815E2,2.2223713E3,1.0120247E4,5.1734336E3,6.937531E3,1.8723978E3,2.1652627E3,1.7975815E2,2.1964395E4,1.8402604E3,2.4132848E0,1.8233487E2,4.274046E2,1.7949668E3,5.5434805E3,4.5767666E3,4.32701E3,8.4642377E2,9.5803705E2,9.143607E2,1.943796E3,2.214667E2,1.761075E2,3.6506503E0,2.0511264E4,1.453131E3,3.0393466E2,1.5363257E3,1.8070834E2,1.626533E0,5.5489048E1,3.7191553E2,1.0089582E3,7.860086E2,2.2257568E3,3.3177234E3,2.920641E1,4.54756E3,3.2012318E1,4.2949976E3,1.5269449E0,8.4489685E2,4.4221616E2,5.158209E2,9.003713E2,1.3989463E1],"tree_param":{"num_deleted":"0","num_feature":"18","num_nodes":"55","size_leaf_vector":"1"}},{"base_weights":[-2.4755157E-3,-7.738543E-1,9.276584E-1,2.3330027E-1,-8.689544E-1,8.089027E-1,1.1322869E0,1.5608203E-1,9.18402E-1,-9.676505E-1,5.825316E-2,6.325573E-1,1.1428164E0,9.4177924E-2,9.6385163E-1,1.8884213E-1,-1.6791093E-1,9.7930723E-1,-1.4105068E-1,-1.0640738E0,1.6005886E-1,1.4964986E-1,-1.02466E0,2.2056502E-1,1.1678284E0,1.0143957E0,1.1512508E0,7.602797E-1,1.1837987E0,-1.2878257E-2,2.8195245E-2,8.406278E-2,-1.7376356E-2,-9.223848E-2,-3.80697E-2,-5.655933E-2,2.5291521E-2,4.7248077E-2,1.1991453E-3,-1.1931365E-1,-1.1309756E-2,-5.227147E-2,6.868607E-2,9.425403E-2,6.311515E-2,8.287107E-2,-1.4720133E-1,5.0859045E-2,9.220843E-2,1.681767E-2,9.112835E-2,9.515412E-2,-1.3623786E-1],"categories":[],"categories_nodes":[],"categories_segments":[],"categories_sizes":[],"default_left":[0,0,0,0,0,0,0,0,0,0,0,0,0,0,0,0,0,0,0,0,0,0,0,0,0,0,0,0,0,0,0,0,0,0,0,0,0,0,0,0,0,0,0,0,0,0,0,0,0,0,0,0,0],"id":15,"left_children":[1,3,5,7,9,11,13,15,17,19,21,23,25,-1,27,29,-1,31,-1,33,35,37,39,41,43,45,47,49,51,-1,-1,-1,-1,-1,-1,-1,-1,-1,-1,-1,-1,-1,-1,-1,-1,-1,-1,-1,-1,-1,-1,-1,-1],"loss_changes":[3.569807E4,2.6052686E3,5.4721484E2,1.2403951E2,2.2742988E3,8.399297E2,6.1541016E1,1.5632939E2,4.052678E1,2.4425352E3,2.3688068E2,2.0605076E3,4.1748047E0,0E0,7.743286E1,1.19182045E2,0E0,2.0149994E1,0E0,1.0815469E3,2.3977786E2,1.3101118E2,7.658995E1,2.9455854E3,1.5002441E1,2.1072357E1,2.494629E0,1.896648E2,1.5658325E1,0E0,0E0,0E0,0E0,0E0,0E0,0E0,0E0,0E0,0E0,0E0,0E0,0E0,0E0,0E0,0E0,0E0,0E0,0E0,0E0,0E0,0E0,0E0,0E0],"parents":[2147483647,0,0,1,1,2,2,3,3,4,4,5,5,6,6,7,7,8,8,9,9,10,10,11,11,12,12,14,14,15,15,17,17,19,19,20,20,21,21,22,22,23,23,24,24,25,25,26,26,27,27,28,28],"right_children":[2,4,6,8,10,12,14,16,18,20,22,24,26,-1,28,30,-1,32,-1,34,36,38,40,42,44,46,48,50,52,-1,-1,-1,-1,-1,-1,-1,-1,-1,-1,-1,-1,-1,-1,-1,-1,-1,-1,-1,-1,-1,-1,-1,-1],"split_conditions":[1E0,3.8549057E2,2E0,1.8197816E2,1.8197816E2,1.8197816E2,4.0643906E2,4.847402E2,1.8372952E1,4.6914577E1,1.8536486E1,4.7910503E1,1.8547624E2,9.4177924E-2,4.6914577E1,3.8768288E1,-1.6791093E-1,4.251285E2,-1.4105068E-1,1.1557628E2,4.4799877E1,3.90129E1,1.9037802E2,1.1244058E2,6.43895E0,5.956273E0,7.602242E1,1.7457549E2,7.4167743E0,-1.2878257E-2,2.8195245E-2,8.406278E-2,-1.7376356E-2,-9.223848E-2,-3.80697E-2,-5.655933E-2,2.5291521E-2,4.7248077E-2,1.1991453E-3,-1.1931365E-1,-1.1309756E-2,-5.227147E-2,6.868607E-2,9.425403E-2,6.311515E-2,8.287107E-2,-1.4720133E-1,5.0859045E-2,9.220843E-2,1.681767E-2,9.112835E-2,9.515412E-2,-1.3623786E-1],"split_indices":[12,1,12,0,0,0,1,9,4,3,4,3,0,0,3,11,0,9,0,10,11,3,0,10,7,7,10,0,7,0,0,0,0,0,0,0,0,0,0,0,0,0,0,0,0,0,0,0,0,0,0,0,0],"split_type":[0,0,0,0,0,0,0,0,0,0,0,0,0,0,0,0,0,0,0,0,0,0,0,0,0,0,0,0,0,0,0,0,0,0,0,0,0,0,0,0,0,0,0,0,0,0,0,0,0,0,0,0,0],"sum_hessian":[4.975241E4,2.7197305E4,2.2555105E4,2.346398E3,2.4850906E4,1.4275375E4,8.27973E3,2.109826E3,2.3657191E2,2.246011E4,2.3907966E3,9.343704E3,4.9316704E3,6.5312544E3,1.7484762E3,2.0805166E3,2.930941E1,2.3193874E2,4.633185E0,2.0691008E4,1.769101E3,2.2055154E3,1.852813E2,5.2806553E3,4.0630493E3,3.1141354E2,4.620257E3,9.103544E2,8.381218E2,6.6295166E2,1.417565E3,2.1897911E2,1.2959622E1,1.7973363E4,2.7176455E3,2.6934793E2,1.499753E3,5.1517365E2,1.6903417E3,1.20772415E2,6.450889E1,2.228286E3,3.0523691E3,3.9529885E3,1.1006076E2,3.0971857E2,1.6949806E0,1.3341068E1,4.6069155E3,3.719021E2,5.384523E2,8.370779E2,1.0439546E0],"tree_param":{"num_deleted":"0","num_feature":"18","num_nodes":"53","size_leaf_vector":"1"}},{"base_weights":[5.3060804E-3,-7.3880076E-1,9.0578693E-1,-8.4177047E-1,1.7205518E-1,1.1453769E0,7.9690605E-1,-9.3634427E-1,2.2095285E-1,9.400616E-1,1.0835067E-1,9.8421925E-1,9.2785776E-2,6.314526E-1,1.1462444E0,6.29182E-2,-1.0507354E0,-1.1866966E0,4.747751E-1,-1.3583554E-1,9.869402E-1,-5.8794096E-2,4.768384E-1,4.7700667E-1,1.2051262E0,1.5454388E-1,1.122319E0,-9.5038146E-2,1.1566707E0,3.2133974E-2,-7.456311E-3,-9.172358E-2,-3.751141E-2,-4.5706164E-3,-1.00239284E-1,-4.2672735E-2,5.1641192E-2,-6.602575E-3,8.552015E-2,-1.4596E-2,5.860767E-2,4.337222E-2,-1.5432379E-1,-6.110396E-2,7.131248E-2,1.3161556E-1,7.8441076E-2,-9.462289E-2,5.333571E-2,7.705176E-2,9.060297E-2,2.6699211E-2,9.28838E-2],"categories":[],"categories_nodes":[],"categories_segments":[],"categories_sizes":[],"default_left":[0,0,0,0,0,0,0,0,0,0,0,0,0,0,0,0,0,0,0,0,0,0,0,0,0,0,0,0,0,0,0,0,0,0,0,0,0,0,0,0,0,0,0,0,0,0,0,0,0,0,0,0,0],"id":16,"left_children":[1,3,5,7,9,11,13,15,17,19,21,23,-1,25,27,29,31,33,35,-1,37,39,41,43,45,47,49,-1,51,-1,-1,-1,-1,-1,-1,-1,-1,-1,-1,-1,-1,-1,-1,-1,-1,-1,-1,-1,-1,-1,-1,-1,-1],"loss_changes":[3.1856479E4,2.4416914E3,5.6024805E2,2.3508438E3,1.2929483E2,1.4499023E1,8.543174E2,2.4550352E3,6.837335E2,2.6711319E1,1.5051447E2,6.2094543E1,0E0,2.350403E3,1.1705664E2,1.1675979E2,1.0737461E3,2.1823883E1,2.793239E2,0E0,1.7600601E1,1.6471216E2,1.2087248E2,8.8785995E1,3.683423E1,3.4897932E3,6.9570312E0,0E0,1.6660156E1,0E0,0E0,0E0,0E0,0E0,0E0,0E0,0E0,0E0,0E0,0E0,0E0,0E0,0E0,0E0,0E0,0E0,0E0,0E0,0E0,0E0,0E0,0E0,0E0],"parents":[2147483647,0,0,1,1,2,2,3,3,4,4,5,5,6,6,7,7,8,8,9,9,10,10,11,11,13,13,14,14,15,15,16,16,17,17,18,18,20,20,21,21,22,22,23,23,24,24,25,25,26,26,28,28],"right_children":[2,4,6,8,10,12,14,16,18,20,22,24,-1,26,28,30,32,34,36,-1,38,40,42,44,46,48,50,-1,52,-1,-1,-1,-1,-1,-1,-1,-1,-1,-1,-1,-1,-1,-1,-1,-1,-1,-1,-1,-1,-1,-1,-1,-1],"split_conditions":[1E0,1.8197816E2,3.990723E2,4.6914577E1,3.8061775E1,2E0,4.6914577E1,3.990723E2,1.4E1,3.812358E2,1.1076099E1,1.2E1,9.2785776E-2,1.8197816E2,1E1,7E0,1.1525036E2,3.8549057E2,4.5191326E1,-1.3583554E-1,3.3405464E1,4.7845905E1,2E1,1.7122496E2,3.949838E1,1.05974106E2,1.8547624E2,-9.5038146E-2,1.2E1,3.2133974E-2,-7.456311E-3,-9.172358E-2,-3.751141E-2,-4.5706164E-3,-1.00239284E-1,-4.2672735E-2,5.1641192E-2,-6.602575E-3,8.552015E-2,-1.4596E-2,5.860767E-2,4.337222E-2,-1.5432379E-1,-6.110396E-2,7.131248E-2,1.3161556E-1,7.8441076E-2,-9.462289E-2,5.333571E-2,7.705176E-2,9.060297E-2,2.6699211E-2,9.28838E-2],"split_indices":[12,0,1,3,3,12,3,1,13,9,6,13,0,0,13,13,10,1,11,0,11,11,13,0,3,10,0,0,13,0,0,0,0,0,0,0,0,0,0,0,0,0,0,0,0,0,0,0,0,0,0,0,0],"split_type":[0,0,0,0,0,0,0,0,0,0,0,0,0,0,0,0,0,0,0,0,0,0,0,0,0,0,0,0,0,0,0,0,0,0,0,0,0,0,0,0,0,0,0,0,0,0,0,0,0,0,0,0,0],"sum_hessian":[4.7541156E4,2.6030879E4,2.151028E4,2.3387107E4,2.6437712E3,6.717981E3,1.4792298E4,2.1476033E4,1.9110739E3,2.0144476E2,2.4423264E3,5.583146E2,6.1596665E3,1.0039977E4,4.7523213E3,2.2059983E3,1.9270035E4,2.913924E2,1.6196815E3,2.9023159E0,1.9854243E2,1.6807738E3,7.6155273E2,1.703477E2,3.879669E2,5.093055E3,4.9469214E3,2.0630701E1,4.731691E3,6.954423E2,1.510556E3,1.6544719E4,2.7253164E3,1.6257048E1,2.7513535E2,2.3426569E2,1.3854158E3,1.4148306E1,1.8439413E2,1.4543057E3,2.2646808E2,7.4217896E2,1.9373823E1,4.243737E1,1.27910324E2,1.2896664E2,2.5900024E2,1.4099893E3,3.6830657E3,3.0415933E2,4.6427617E3,2.5442102E1,4.7062485E3],"tree_param":{"num_deleted":"0","num_feature":"18","num_nodes":"53","size_leaf_vector":"1"}},{"base_weights":[3.1455914E-3,-7.1199954E-1,8.838184E-1,-8.262102E-1,1.8308099E-1,1.1256162E0,7.789667E-1,7.388576E-2,-9.4397646E-1,2.798272E-1,-6.8364424E-1,9.079739E-1,9.161033E-2,6.0619986E-1,1.1091424E0,2.5616366E-1,-5.52991E-1,-1.0255209E0,-3.262077E-1,9.641772E-1,2.058091E-1,-9.6450883E-1,1.2791893E0,9.3817157E-1,-1.1842852E-1,3.438209E-1,9.278027E-1,9.843219E-1,1.1181526E0,5.7297815E-2,7.026467E-3,2.6901036E-3,-8.197652E-2,-8.717954E-2,-1.437651E-2,-4.9074907E-3,-9.97071E-2,8.4994346E-2,-4.3444216E-2,-3.7312083E-2,2.2185326E-2,1.5306817E-1,-8.887823E-2,1.2111526E-1,-9.874007E-2,4.6635292E-2,8.730696E-2,-7.7701514E-3,7.507329E-2,7.014825E-3,8.101812E-2,8.305931E-2,-3.9355293E-2,9.02099E-2,8.552948E-2],"categories":[],"categories_nodes":[],"categories_segments":[],"categories_sizes":[],"default_left":[0,0,0,0,0,0,0,0,0,0,0,0,0,0,0,0,0,0,0,0,0,0,0,0,0,0,0,0,0,0,0,0,0,0,0,0,0,0,0,0,0,0,0,0,0,0,0,0,0,0,0,0,0,0,0],"id":17,"left_children":[1,3,5,7,9,11,13,15,17,19,21,23,-1,25,27,29,31,33,35,37,39,41,43,45,-1,47,49,51,53,-1,-1,-1,-1,-1,-1,-1,-1,-1,-1,-1,-1,-1,-1,-1,-1,-1,-1,-1,-1,-1,-1,-1,-1,-1,-1],"loss_changes":[2.8491854E4,2.552334E3,5.1310645E2,2.3470117E3,2.3715103E2,2.4992676E1,8.0617285E2,2.9295947E2,9.8597656E2,1.2860846E2,1.578292E2,3.8112152E1,0E0,7.8340454E2,4.3618164E0,1.5373975E2,1.5986398E2,9.3932227E2,5.5668353E2,3.7290573E1,1.1049101E2,1.0711101E2,2.3102348E1,2.6755402E1,0E0,1.3415524E3,2.9759302E2,2.7207611E1,8.959961E-1,0E0,0E0,0E0,0E0,0E0,0E0,0E0,0E0,0E0,0E0,0E0,0E0,0E0,0E0,0E0,0E0,0E0,0E0,0E0,0E0,0E0,0E0,0E0,0E0,0E0,0E0],"parents":[2147483647,0,0,1,1,2,2,3,3,4,4,5,5,6,6,7,7,8,8,9,9,10,10,11,11,13,13,14,14,15,15,16,16,17,17,18,18,19,19,20,20,21,21,22,22,23,23,25,25,26,26,27,27,28,28],"right_children":[2,4,6,8,10,12,14,16,18,20,22,24,-1,26,28,30,32,34,36,38,40,42,44,46,-1,48,50,52,54,-1,-1,-1,-1,-1,-1,-1,-1,-1,-1,-1,-1,-1,-1,-1,-1,-1,-1,-1,-1,-1,-1,-1,-1,-1,-1],"split_conditions":[1E0,1.801476E2,3.915801E2,4.1423267E2,1.8234426E1,2E0,1.8197816E2,5.8498974E1,1.17417E2,1.1061738E1,1.2650989E2,6.790066E1,9.161033E-2,4.5113384E1,1.8547624E2,1.2896239E1,3.7625272E2,5.0492138E1,1E0,4.5911295E2,4.130655E1,6.234611E0,4.5074405E2,1.4E1,-1.1842852E-1,1.1662914E2,1.2E1,1.8711882E1,1E0,5.7297815E-2,7.026467E-3,2.6901036E-3,-8.197652E-2,-8.717954E-2,-1.437651E-2,-4.9074907E-3,-9.97071E-2,8.4994346E-2,-4.3444216E-2,-3.7312083E-2,2.2185326E-2,1.5306817E-1,-8.887823E-2,1.2111526E-1,-9.874007E-2,4.6635292E-2,8.730696E-2,-7.7701514E-3,7.507329E-2,7.014825E-3,8.101812E-2,8.305931E-2,-3.9355293E-2,9.02099E-2,8.552948E-2],"split_indices":[12,0,1,1,4,12,0,5,10,4,10,5,0,11,0,4,1,11,16,1,5,6,9,13,0,10,13,4,15,0,0,0,0,0,0,0,0,0,0,0,0,0,0,0,0,0,0,0,0,0,0,0,0,0,0],"split_type":[0,0,0,0,0,0,0,0,0,0,0,0,0,0,0,0,0,0,0,0,0,0,0,0,0,0,0,0,0,0,0,0,0,0,0,0,0,0,0,0,0,0,0,0,0,0,0,0,0,0,0,0,0,0,0],"sum_hessian":[4.5236887E4,2.4964666E4,2.0272219E4,2.213975E4,2.8249153E3,6.128826E3,1.4143393E4,2.5616035E3,1.9578146E4,2.5418628E3,2.8305246E2,5.0818317E2,5.620643E3,9.286827E3,4.856565E3,1.9850104E3,5.765931E2,1.7294625E4,2.2835215E3,2.4691666E2,2.294946E3,2.480651E2,3.4987362E1,5.0243762E2,5.7455635E0,5.1154595E3,4.1713677E3,3.343905E2,4.522175E3,5.308701E2,1.4541403E3,2.5741052E2,3.1918256E2,1.6073837E4,1.2207887E3,1.7739487E3,5.0957285E2,2.3208292E2,1.4833731E1,2.2012512E2,2.074821E3,1.1429629E1,2.3663545E2,3.2362423E1,2.6249387E0,1.5281831E2,3.496193E2,2.9377102E3,2.1777493E3,3.8314117E2,3.7882268E3,3.2289374E2,1.1496751E1,3.7716584E3,7.505161E2],"tree_param":{"num_deleted":"0","num_feature":"18","num_nodes":"55","size_leaf_vector":"1"}},{"base_weights":[6.3624354E-3,-6.9526875E-1,8.615062E-1,2.0620085E-1,-8.0141336E-1,1.1098213E0,7.5201666E-1,1.4274515E-1,9.205255E-1,-8.884814E-1,3.5395786E-1,9.055688E-1,9.068061E-2,5.885158E-1,1.1235349E0,1.6293493E-1,-1.6814445E-1,9.9801785E-1,-1.4002746E-1,-9.86702E-1,1.387304E-1,5.930839E-1,-1.2512217E0,1.6846566E0,8.3257383E-1,3.2660854E-1,1.1193595E0,-4.387336E-1,1.1360894E0,5.8742044E-3,5.0574783E-2,-1.8925916E-1,8.4255636E-2,7.67815E-2,-8.014887E-2,-1.036316E-1,3.1900857E-2,7.440464E-2,-8.8805206E-2,-1.1332591E-1,1.01729125E-1,2.0264192E-1,8.598125E-2,2.8079668E-2,8.252144E-2,3.1347297E-2,-7.249187E-3,9.11226E-2,-2.814392E-1,-9.455427E-2,5.6270618E-2,9.1460906E-2,7.353311E-2],"categories":[],"categories_nodes":[],"categories_segments":[],"categories_sizes":[],"default_left":[0,0,0,0,0,0,0,0,0,0,0,0,0,0,0,0,0,0,0,0,0,0,0,0,0,0,0,0,0,0,0,0,0,0,0,0,0,0,0,0,0,0,0,0,0,0,0,0,0,0,0,0,0],"id":18,"left_children":[1,3,5,7,9,11,13,15,17,19,21,23,-1,25,27,29,-1,31,-1,33,35,37,39,41,43,45,47,49,51,-1,-1,-1,-1,-1,-1,-1,-1,-1,-1,-1,-1,-1,-1,-1,-1,-1,-1,-1,-1,-1,-1,-1,-1],"loss_changes":[2.5998977E4,2.2777305E3,5.301328E2,1.13560394E2,2.1425273E3,2.7875977E1,8.228086E2,1.0478694E2,4.4062256E1,1.9981475E3,5.7383435E2,3.4184204E1,0E0,1.3087249E3,8.173291E1,9.593231E1,0E0,3.9486618E1,0E0,5.3428516E2,6.4535376E2,7.472073E2,8.269003E1,2.450885E1,5.464395E1,1.7167456E2,2.8776562E2,2.9469978E1,5.341797E0,0E0,0E0,0E0,0E0,0E0,0E0,0E0,0E0,0E0,0E0,0E0,0E0,0E0,0E0,0E0,0E0,0E0,0E0,0E0,0E0,0E0,0E0,0E0,0E0],"parents":[2147483647,0,0,1,1,2,2,3,3,4,4,5,5,6,6,7,7,8,8,9,9,10,10,11,11,13,13,14,14,15,15,17,17,19,19,20,20,21,21,22,22,23,23,24,24,25,25,26,26,27,27,28,28],"right_children":[2,4,6,8,10,12,14,16,18,20,22,24,-1,26,28,30,-1,32,-1,34,36,38,40,42,44,46,48,50,52,-1,-1,-1,-1,-1,-1,-1,-1,-1,-1,-1,-1,-1,-1,-1,-1,-1,-1,-1,-1,-1,-1,-1,-1],"split_conditions":[1E0,3.915801E2,4.0643906E2,4.7910503E1,1.2062034E2,2E0,4.7910503E1,4.3022377E1,6.122783E1,4.6914577E1,1E0,2E0,9.068061E-2,1.2062034E2,1.2E1,1.0317403E2,-1.6814445E-1,3.5855026E2,-1.4002746E-1,3.1150982E0,1.4E1,1E0,4.960485E1,5.0518463E1,1.2E1,1.116142E2,1E0,1.756418E1,6.43895E0,5.8742044E-3,5.0574783E-2,-1.8925916E-1,8.4255636E-2,7.67815E-2,-8.014887E-2,-1.036316E-1,3.1900857E-2,7.440464E-2,-8.8805206E-2,-1.1332591E-1,1.01729125E-1,2.0264192E-1,8.598125E-2,2.8079668E-2,8.252144E-2,3.1347297E-2,-7.249187E-3,9.11226E-2,-2.814392E-1,-9.455427E-2,5.6270618E-2,9.1460906E-2,7.353311E-2],"split_indices":[12,1,1,3,2,12,3,3,5,3,17,13,0,2,13,2,0,1,0,7,13,16,3,5,13,10,17,4,7,0,0,0,0,0,0,0,0,0,0,0,0,0,0,0,0,0,0,0,0,0,0,0,0],"split_type":[0,0,0,0,0,0,0,0,0,0,0,0,0,0,0,0,0,0,0,0,0,0,0,0,0,0,0,0,0,0,0,0,0,0,0,0,0,0,0,0,0,0,0,0,0,0,0,0,0,0,0,0,0],"sum_hessian":[4.332995E4,2.3801447E4,1.9528504E4,2.507204E3,2.1294242E4,5.9729995E3,1.3555504E4,2.3037544E3,2.0344992E2,1.9802193E4,1.492049E3,6.247627E2,5.348237E3,9.414762E3,4.140742E3,2.284136E3,1.9618431E1,1.9832214E2,5.127769E0,1.807402E4,1.7281749E3,1.299144E3,1.9290495E2,5.1629784E1,5.731329E2,6.3054155E3,3.109346E3,3.2739544E1,4.108003E3,1.9192112E3,3.649247E2,2.5248773E0,1.9579727E2,1.391884E2,1.793483E4,2.646407E2,1.4635342E3,1.0849388E3,2.1420511E2,1.8145078E2,1.1454186E1,2.0274462E1,3.1355322E1,1.6835806E2,4.0477484E2,5.452916E3,8.524995E2,3.0969622E3,1.238383E1,1.981241E1,1.29271345E1,3.9724004E3,1.3560237E2],"tree_param":{"num_deleted":"0","num_feature":"18","num_nodes":"53","size_leaf_vector":"1"}},{"base_weights":[5.2522114E-3,8.0203676E-1,-1.785792E-1,8.3711267E-1,5.2887326E-1,-4.2605564E-1,7.6560587E-1,8.1462145E-1,1.0539135E0,5.962209E-1,-8.9958064E-2,-7.523232E-1,8.157039E-1,7.948795E-1,3.6387318E-1,7.9573053E-1,1.0954549E0,-1.421846E-1,1.0645102E0,-1.4364767E-1,6.116276E-1,8.717004E-1,-7.359877E-1,-1.13404E0,8.2481253E-1,-9.640784E-2,9.1487825E-1,7.196069E-1,8.8296217E-1,-1.7039472E-1,6.8241054E-1,6.4903885E-2,3.2770336E-2,9.034136E-2,6.2507965E-2,8.56732E-2,1.9791326E-2,4.1819002E-2,7.420877E-2,9.595857E-2,-1.1636694E-1,-9.0607785E-2,5.5494223E-2,-1.4385081E-2,-9.227802E-2,7.543831E-2,-1.24924436E-1,7.733227E-2,-2.721159E-3,6.411472E-2,4.5521144E-2,-4.1996937E-2,7.099111E-2,3.8218983E-2,-5.7935786E-2,5.861564E-2,-1.2923414E-1],"categories":[],"categories_nodes":[],"categories_segments":[],"categories_sizes":[],"default_left":[0,0,0,0,0,0,0,0,0,0,0,0,0,0,0,0,0,0,0,0,0,0,0,0,0,0,0,0,0,0,0,0,0,0,0,0,0,0,0,0,0,0,0,0,0,0,0,0,0,0,0,0,0,0,0,0,0],"id":19,"left_children":[1,3,5,7,9,11,13,15,17,19,21,23,25,27,29,31,33,-1,35,-1,37,39,41,43,45,-1,47,49,51,53,55,-1,-1,-1,-1,-1,-1,-1,-1,-1,-1,-1,-1,-1,-1,-1,-1,-1,-1,-1,-1,-1,-1,-1,-1,-1,-1],"loss_changes":[6.0705845E3,7.4E1,7.8690283E3,3.2706543E1,3.7014145E1,1.0810925E4,8.195947E1,3.223828E1,2.1200745E1,3.0575409E1,5.5256985E1,1.272224E4,1.1138779E3,4.258008E1,8.127026E1,3.483911E1,3.267212E0,0E0,3.093933E0,0E0,2.186029E1,2.903029E1,3.0909733E1,3.1532617E2,1.1627961E3,0E0,2.6008643E2,4.2918945E1,1.9156982E1,6.456537E1,3.5725662E1,0E0,0E0,0E0,0E0,0E0,0E0,0E0,0E0,0E0,0E0,0E0,0E0,0E0,0E0,0E0,0E0,0E0,0E0,0E0,0E0,0E0,0E0,0E0,0E0,0E0,0E0],"parents":[2147483647,0,0,1,1,2,2,3,3,4,4,5,5,6,6,7,7,8,8,9,9,10,10,11,11,12,12,13,13,14,14,15,15,16,16,18,18,20,20,21,21,22,22,23,23,24,24,26,26,27,27,28,28,29,29,30,30],"right_children":[2,4,6,8,10,12,14,16,18,20,22,24,26,28,30,32,34,-1,36,-1,38,40,42,44,46,-1,48,50,52,54,56,-1,-1,-1,-1,-1,-1,-1,-1,-1,-1,-1,-1,-1,-1,-1,-1,-1,-1,-1,-1,-1,-1,-1,-1,-1,-1],"split_conditions":[3.915801E2,4.2895654E2,1.8197816E2,4.7910503E1,4.8671167E2,4.6914577E1,1.8536486E1,1.2248137E2,3E0,9.6080574E1,8.71504E1,1.2062034E2,1.4E1,1.9037802E2,1.8807988E2,2E1,1E0,-1.421846E-1,4.267915E2,-1.4364767E-1,1E0,9.6166525E0,4.2329086E1,4.1423267E2,1E0,-9.640784E-2,6.540407E0,1.0058117E2,3.277677E2,4.475586E0,2E1,6.4903885E-2,3.2770336E-2,9.034136E-2,6.2507965E-2,8.56732E-2,1.9791326E-2,4.1819002E-2,7.420877E-2,9.595857E-2,-1.1636694E-1,-9.0607785E-2,5.5494223E-2,-1.4385081E-2,-9.227802E-2,7.543831E-2,-1.24924436E-1,7.733227E-2,-2.721159E-3,6.411472E-2,4.5521144E-2,-4.1996937E-2,7.099111E-2,3.8218983E-2,-5.7935786E-2,5.861564E-2,-1.2923414E-1],"split_indices":[1,9,0,3,9,3,4,2,13,2,10,2,13,0,0,13,17,0,9,0,14,6,3,1,16,0,7,2,9,7,13,0,0,0,0,0,0,0,0,0,0,0,0,0,0,0,0,0,0,0,0,0,0,0,0,0,0],"split_type":[0,0,0,0,0,0,0,0,0,0,0,0,0,0,0,0,0,0,0,0,0,0,0,0,0,0,0,0,0,0,0,0,0,0,0,0,0,0,0,0,0,0,0,0,0,0,0,0,0,0,0,0,0,0,0,0,0],"sum_hessian":[4.14428E4,7.7684546E3,3.3674348E4,6.8826187E3,8.858357E2,2.6681516E4,6.9928325E3,6.2400273E3,6.4259125E2,7.989249E2,8.691075E1,2.1130064E4,5.5514497E3,6.516973E3,4.758596E2,5.850324E3,3.8970325E2,1.7744374E0,6.4081683E2,4.3737435E0,7.9455115E2,3.4783646E1,5.2127106E1,1.7012729E4,4.1173374E3,2.5917993E2,5.29227E3,3.5189568E3,2.9980164E3,1.779154E2,2.9794418E2,5.6225156E3,2.2780873E2,3.4948727E2,4.0215946E1,6.3552484E2,5.2919874E0,6.2217834E2,1.723728E2,3.0912369E1,3.871277E0,4.0969402E1,1.1157705E1,3.3979526E2,1.6672932E4,3.9236538E3,1.9368372E2,5.0184263E3,2.7384335E2,2.2772507E3,1.2417059E3,9.027973E0,2.9889885E3,8.203947E1,9.587594E1,2.9223026E2,5.7139196E0],"tree_param":{"num_deleted":"0","num_feature":"18","num_nodes":"57","size_leaf_vector":"1"}},{"base_weights":[4.609525E-3,-6.516602E-1,8.224118E-1,-7.5034595E-1,3.9756632E-1,6.9404197E-1,1.0556611E0,-8.5032165E-1,1.7314464E-1,9.8044705E-1,3.0635256E-1,4.9828592E-1,1.0644724E0,1.0444944E0,8.902274E-2,-9.2546415E-1,-3.7581754E-1,-1.0071374E0,3.7346953E-1,1.215437E0,6.780974E-1,4.0362835E-1,-1.940661E-1,9.27642E-2,1.0848808E0,8.9114153E-1,1.0778551E0,1.033391E0,1.1110091E0,-7.648521E-2,-2.4195936E-2,1.5434644E-1,-3.717773E-2,3.6733437E-2,-8.549862E-2,-6.0797982E-2,3.8980216E-2,-1.4339302E-1,1.0143904E-1,7.4921034E-2,-2.0132565E-1,-2.1455381E-2,4.0721737E-2,-5.568468E-2,5.940883E-2,-3.844791E-2,6.970255E-2,-9.12331E-2,8.818691E-2,7.538401E-2,-3.3699468E-2,8.7147035E-2,8.172996E-2,8.180873E-2,8.9080654E-2,8.98821E-2,7.4406125E-2],"categories":[],"categories_nodes":[],"categories_segments":[],"categories_sizes":[],"default_left":[0,0,0,0,0,0,0,0,0,0,0,0,0,0,0,0,0,0,0,0,0,0,0,0,0,0,0,0,0,0,0,0,0,0,0,0,0,0,0,0,0,0,0,0,0,0,0,0,0,0,0,0,0,0,0,0,0],"id":20,"left_children":[1,3,5,7,9,11,13,15,17,19,21,23,25,27,-1,29,31,33,35,37,39,41,43,45,47,49,51,53,55,-1,-1,-1,-1,-1,-1,-1,-1,-1,-1,-1,-1,-1,-1,-1,-1,-1,-1,-1,-1,-1,-1,-1,-1,-1,-1,-1,-1],"loss_changes":[2.113805E4,2.262793E3,5.2429395E2,1.8441377E3,9.960779E1,8.1982227E2,2.807129E0,6.422246E2,4.6186197E2,1.7209412E1,7.924576E1,1.7610186E3,8.11084E0,2.7075195E0,0E0,2.9630762E2,5.06156E2,2.609375E1,2.156592E2,2.4647873E1,9.586063E1,9.6571075E1,1.2529182E2,1.9548414E3,1.1880005E2,1.9603134E1,1.2280273E0,2.7387695E0,6.164551E-1,0E0,0E0,0E0,0E0,0E0,0E0,0E0,0E0,0E0,0E0,0E0,0E0,0E0,0E0,0E0,0E0,0E0,0E0,0E0,0E0,0E0,0E0,0E0,0E0,0E0,0E0,0E0,0E0],"parents":[2147483647,0,0,1,1,2,2,3,3,4,4,5,5,6,6,7,7,8,8,9,9,10,10,11,11,12,12,13,13,15,15,16,16,17,17,18,18,19,19,20,20,21,21,22,22,23,23,24,24,25,25,26,26,27,27,28,28],"right_children":[2,4,6,8,10,12,14,16,18,20,22,24,26,28,-1,30,32,34,36,38,40,42,44,46,48,50,52,54,56,-1,-1,-1,-1,-1,-1,-1,-1,-1,-1,-1,-1,-1,-1,-1,-1,-1,-1,-1,-1,-1,-1,-1,-1,-1,-1,-1,-1],"split_conditions":[1E0,1.8807988E2,2E0,4.5821346E1,1.1705592E1,1.8197816E2,4.7910503E1,1.1591481E2,1.4E1,9.18618E0,5.5764805E1,4.7910503E1,1.8547624E2,1.801476E2,8.902274E-2,1.8197816E2,1.0034859E1,6.547521E0,4.279987E1,3E0,5.0743076E1,4.2148117E1,6.553225E1,1.17835236E2,1.2E1,1.928591E1,1E0,1.1874926E2,1.9E1,-7.648521E-2,-2.4195936E-2,1.5434644E-1,-3.717773E-2,3.6733437E-2,-8.549862E-2,-6.0797982E-2,3.8980216E-2,-1.4339302E-1,1.0143904E-1,7.4921034E-2,-2.0132565E-1,-2.1455381E-2,4.0721737E-2,-5.568468E-2,5.940883E-2,-3.844791E-2,6.970255E-2,-9.12331E-2,8.818691E-2,7.538401E-2,-3.3699468E-2,8.7147035E-2,8.172996E-2,8.180873E-2,8.9080654E-2,8.98821E-2,7.4406125E-2],"split_indices":[12,0,12,3,4,0,3,10,13,6,5,3,0,0,0,0,4,6,11,13,5,5,5,10,13,4,15,10,13,0,0,0,0,0,0,0,0,0,0,0,0,0,0,0,0,0,0,0,0,0,0,0,0,0,0,0,0],"split_type":[0,0,0,0,0,0,0,0,0,0,0,0,0,0,0,0,0,0,0,0,0,0,0,0,0,0,0,0,0,0,0,0,0,0,0,0,0,0,0,0,0,0,0,0,0,0,0,0,0,0,0,0,0,0,0,0,0],"sum_hessian":[3.9383305E4,2.1849627E4,1.753368E4,1.997148E4,1.8781471E3,1.1312027E4,6.221652E3,1.802067E4,1.9508108E3,2.5281859E2,1.6253285E3,7.402487E3,3.909541E3,5.220422E3,1.0012298E3,1.5556232E4,2.464437E3,2.824766E2,1.6683342E3,1.405564E2,1.12262184E2,1.3609655E3,2.643631E2,4.377449E3,3.025037E3,2.8506216E2,3.6244788E3,4.48781E3,7.32612E2,1.4827411E4,7.288206E2,9.0749115E1,2.373688E3,1.11275015E1,2.713491E2,1.5168217E2,1.516652E3,1.8450189E0,1.3871138E2,1.0451487E2,7.7473183E0,1.8434296E2,1.1766224E3,1.7228656E2,9.207653E1,2.521095E3,1.8563545E3,2.3043512E1,3.0019937E3,2.7463834E2,1.0423811E1,2.9945847E3,6.2989417E2,3.9676238E3,5.201861E2,6.8033624E2,5.2275776E1],"tree_param":{"num_deleted":"0","num_feature":"18","num_nodes":"57","size_leaf_vector":"1"}},{"base_weights":[-1.0908618E-2,-6.4997715E-1,7.9537475E-1,-7.428972E-1,3.7885115E-1,1.0772039E0,6.8082356E-1,-8.6413294E-1,6.048065E-2,5.808373E-1,-9.179508E-1,8.237055E-1,8.82426E-2,4.9068394E-1,1.0598496E0,-3.2777607E-2,-9.9867857E-1,1.353831E-1,-7.7238446E-1,2.0580337E0,4.8741752E-1,-1.0329297E0,9.960169E-2,1.7206471E0,7.3400533E-1,7.808896E-2,1.0807606E0,1.0728018E0,9.9858385E-1,1.8077938E-2,-2.7065268E-2,-8.8954255E-2,1.7879633E-4,3.0706808E-2,-4.421035E-3,-9.59231E-3,-1.1654225E-1,3.456903E-1,9.8223865E-2,-2.9082626E-2,5.1960487E-2,-9.23006E-2,9.222795E-2,1.8120141E-1,7.908923E-2,-9.2312176E-4,8.1210904E-2,-8.992714E-2,8.462293E-2,-9.06926E-2,8.764005E-2,5.7879455E-2,8.59279E-2,4.140513E-2,8.1030756E-2],"categories":[],"categories_nodes":[],"categories_segments":[],"categories_sizes":[],"default_left":[0,0,0,0,0,0,0,0,0,0,0,0,0,0,0,0,0,0,0,0,0,0,0,0,0,0,0,0,0,0,0,0,0,0,0,0,0,0,0,0,0,0,0,0,0,0,0,0,0,0,0,0,0,0,0],"id":21,"left_children":[1,3,5,7,9,11,13,15,17,19,21,23,-1,25,27,29,31,33,35,37,39,41,-1,43,45,47,49,51,53,-1,-1,-1,-1,-1,-1,-1,-1,-1,-1,-1,-1,-1,-1,-1,-1,-1,-1,-1,-1,-1,-1,-1,-1,-1,-1],"loss_changes":[1.9215477E4,1.989042E3,5.315908E2,1.8584375E3,4.5208362E2,3.0280273E1,8.445762E2,1.8543643E3,1.5623529E2,2.0491757E2,5.9160202E1,3.4492462E1,0E0,1.901567E3,2.036621E0,1.8272945E2,1.61746E3,1.088262E2,9.210927E1,1.6087283E2,1.9399103E2,5.983191E1,0E0,1.3564957E1,8.505545E1,5.4163447E3,1.0615015E2,6.816406E-1,4.2769165E0,0E0,0E0,0E0,0E0,0E0,0E0,0E0,0E0,0E0,0E0,0E0,0E0,0E0,0E0,0E0,0E0,0E0,0E0,0E0,0E0,0E0,0E0,0E0,0E0,0E0,0E0],"parents":[2147483647,0,0,1,1,2,2,3,3,4,4,5,5,6,6,7,7,8,8,9,9,10,10,11,11,13,13,14,14,15,15,16,16,17,17,18,18,19,19,20,20,21,21,23,23,24,24,25,25,26,26,27,27,28,28],"right_children":[2,4,6,8,10,12,14,16,18,20,22,24,-1,26,28,30,32,34,36,38,40,42,-1,44,46,48,50,52,54,-1,-1,-1,-1,-1,-1,-1,-1,-1,-1,-1,-1,-1,-1,-1,-1,-1,-1,-1,-1,-1,-1,-1,-1,-1,-1],"split_conditions":[1E0,1.17789734E2,3.915801E2,1.801476E2,1E0,2E0,1.8383778E2,4.1423267E2,1.8536486E1,1.0442876E1,5.5016586E1,2E0,8.82426E-2,4.7910503E1,1E0,5.205484E1,4.6914577E1,9.6354294E1,1E1,1.2062034E2,1.2248137E2,1.9343433E2,9.960169E-2,5.0518463E1,1.4E1,1.17789734E2,1.2E1,9.446841E1,1.8547624E2,1.8077938E-2,-2.7065268E-2,-8.8954255E-2,1.7879633E-4,3.0706808E-2,-4.421035E-3,-9.59231E-3,-1.1654225E-1,3.456903E-1,9.8223865E-2,-2.9082626E-2,5.1960487E-2,-9.23006E-2,9.222795E-2,1.8120141E-1,7.908923E-2,-9.2312176E-4,8.1210904E-2,-8.992714E-2,8.462293E-2,-9.06926E-2,8.764005E-2,5.7879455E-2,8.59279E-2,4.140513E-2,8.1030756E-2],"split_indices":[12,2,1,0,16,12,0,1,4,4,11,13,0,3,15,5,3,10,13,2,2,0,0,5,13,2,13,2,0,0,0,0,0,0,0,0,0,0,0,0,0,0,0,0,0,0,0,0,0,0,0,0,0,0,0],"split_type":[0,0,0,0,0,0,0,0,0,0,0,0,0,0,0,0,0,0,0,0,0,0,0,0,0,0,0,0,0,0,0,0,0,0,0,0,0,0,0,0,0,0,0,0,0,0,0,0,0,0,0,0,0,0,0],"sum_hessian":[3.729003E4,2.0802191E4,1.648784E4,1.9079297E4,1.7228955E3,4.7624424E3,1.1725396E4,1.6577545E4,2.501751E3,1.4911849E3,2.3171062E2,4.434109E2,4.3190317E3,7.8098535E3,3.9155432E3,2.3093503E3,1.4268195E4,2.2960928E3,2.0565816E2,8.744441E1,1.4037405E3,2.2051118E2,1.1199437E1,3.865951E1,4.0475137E2,4.5967993E3,3.213054E3,3.2185884E3,6.969547E2,1.2505526E3,1.0587979E3,1.2817798E4,1.450398E3,9.9646954E2,1.2996233E3,1.0588538E2,9.9772766E1,2.2341146E1,6.5103264E1,2.244029E2,1.1793376E3,2.0940747E2,1.11037035E1,2.0970665E1,1.7688848E1,1.1109428E2,2.936571E2,2.0639712E3,2.5328281E3,2.0743883E1,3.19231E3,1.3973701E1,3.2046147E3,2.1195831E1,6.757589E2],"tree_param":{"num_deleted":"0","num_feature":"18","num_nodes":"55","size_leaf_vector":"1"}},{"base_weights":[5.742765E-3,-6.009808E-1,7.843197E-1,-7.242345E-1,1.7466165E-1,1.0604919E0,6.697078E-1,4.267383E-2,-8.5222363E-1,2.4000482E-1,-6.168942E-1,7.301014E-1,8.765331E-2,4.7651404E-1,1.0364224E0,2.1695328E0,3.024189E-3,-9.611031E-1,1.3420469E-1,7.482654E-1,1.6170181E-1,9.002349E-1,-8.502247E-1,2.4434358E-1,9.4364053E-1,3.8455784E-2,1.0546817E0,9.0744156E-1,1.0478805E0,5.2311085E-2,5.4990286E-1,8.530966E-3,-4.197485E-2,-8.5749865E-2,-3.2849785E-2,-9.328709E-2,2.486604E-2,-7.20948E-2,6.709128E-2,-6.5080166E-2,1.7450446E-2,1.2245461E-1,-1.2577711E-1,-9.072545E-2,9.618748E-3,6.328677E-2,-8.1434995E-2,1.03522986E-1,5.441393E-2,-7.1818806E-2,4.8309553E-2,-9.36648E-2,8.5695416E-2,-1.6574909E-1,7.4946985E-2,3.330686E-2,8.3889924E-2],"categories":[],"categories_nodes":[],"categories_segments":[],"categories_sizes":[],"default_left":[0,0,0,0,0,0,0,0,0,0,0,0,0,0,0,0,0,0,0,0,0,0,0,0,0,0,0,0,0,0,0,0,0,0,0,0,0,0,0,0,0,0,0,0,0,0,0,0,0,0,0,0,0,0,0,0,0],"id":22,"left_children":[1,3,5,7,9,11,13,15,17,19,21,23,-1,25,27,29,31,33,35,37,39,41,43,45,47,49,51,53,55,-1,-1,-1,-1,-1,-1,-1,-1,-1,-1,-1,-1,-1,-1,-1,-1,-1,-1,-1,-1,-1,-1,-1,-1,-1,-1,-1,-1],"loss_changes":[1.6879584E4,1.9200703E3,4.9465527E2,1.7010225E3,1.426189E2,5.2521973E1,7.8327246E2,2.0908113E2,1.5951514E3,1.0117308E2,7.521932E1,4.587416E1,0E0,1.8355402E3,4.689453E0,3.1902747E2,1.3319835E2,8.151162E2,3.396021E2,5.1363907E1,1.2161069E2,4.686448E1,5.0491486E1,9.540684E1,2.7590637E1,2.1837314E3,1.1605078E2,2.9863647E1,1.2060547E0,0E0,0E0,0E0,0E0,0E0,0E0,0E0,0E0,0E0,0E0,0E0,0E0,0E0,0E0,0E0,0E0,0E0,0E0,0E0,0E0,0E0,0E0,0E0,0E0,0E0,0E0,0E0,0E0],"parents":[2147483647,0,0,1,1,2,2,3,3,4,4,5,5,6,6,7,7,8,8,9,9,10,10,11,11,13,13,14,14,15,15,16,16,17,17,18,18,19,19,20,20,21,21,22,22,23,23,24,24,25,25,26,26,27,27,28,28],"right_children":[2,4,6,8,10,12,14,16,18,20,22,24,-1,26,28,30,32,34,36,38,40,42,44,46,48,50,52,54,56,-1,-1,-1,-1,-1,-1,-1,-1,-1,-1,-1,-1,-1,-1,-1,-1,-1,-1,-1,-1,-1,-1,-1,-1,-1,-1,-1,-1],"split_conditions":[1E0,1.801476E2,3.990723E2,4.1953986E2,1.8536486E1,2E0,1.8197816E2,9.306479E0,4.7910503E1,4.284232E2,3.915801E2,1.2E1,8.765331E-2,4.6914577E1,1.8547624E2,4.0643906E2,4.2895654E2,1.1525036E2,1.4E1,3E0,3.8240897E2,7E0,4.6120425E2,5E0,3.6475186E2,1.0953247E2,1.2E1,4.3061765E2,1.473023E2,5.2311085E-2,5.4990286E-1,8.530966E-3,-4.197485E-2,-8.5749865E-2,-3.2849785E-2,-9.328709E-2,2.486604E-2,-7.20948E-2,6.709128E-2,-6.5080166E-2,1.7450446E-2,1.2245461E-1,-1.2577711E-1,-9.072545E-2,9.618748E-3,6.328677E-2,-8.1434995E-2,1.03522986E-1,5.441393E-2,-7.1818806E-2,4.8309553E-2,-9.36648E-2,8.5695416E-2,-1.6574909E-1,7.4946985E-2,3.330686E-2,8.3889924E-2],"split_indices":[12,0,1,1,4,12,0,4,3,1,1,13,0,3,0,1,9,10,13,13,9,13,1,13,1,10,13,1,8,0,0,0,0,0,0,0,0,0,0,0,0,0,0,0,0,0,0,0,0,0,0,0,0,0,0,0,0],"split_type":[0,0,0,0,0,0,0,0,0,0,0,0,0,0,0,0,0,0,0,0,0,0,0,0,0,0,0,0,0,0,0,0,0,0,0,0,0,0,0,0,0,0,0,0,0,0,0,0,0,0,0,0,0,0,0,0,0],"sum_hessian":[3.573099E4,2.0081926E4,1.5649063E4,1.7328416E4,2.75351E3,4.587247E3,1.1061816E4,2.4784226E3,1.4849992E4,2.5441838E3,2.0932631E2,4.4347595E2,4.143771E3,7.2464946E3,3.8153223E3,4.437494E1,2.4340476E3,1.3373847E4,1.4761456E3,3.384923E2,2.2056914E3,2.7521523E1,1.818048E2,1.3607574E2,3.074002E2,4.123399E3,3.1230952E3,3.178283E2,3.497494E3,3.442325E1,9.951687E0,2.0352379E3,3.988097E2,1.1132725E4,2.2411228E3,1.75859E2,1.3002866E3,1.7117025E1,3.213753E2,1.1991417E2,2.0857773E3,2.22332E1,5.288322E0,1.4053268E2,4.1272102E1,9.521002E1,4.0865723E1,1.3025551E2,1.771447E2,1.552402E3,2.570997E3,2.2485115E1,3.10061E3,2.4264042E0,3.154019E2,4.7724147E0,3.4927214E3],"tree_param":{"num_deleted":"0","num_feature":"18","num_nodes":"57","size_leaf_vector":"1"}},{"base_weights":[-4.08212E-3,-5.967647E-1,7.670438E-1,1.9176917E-1,-7.1348333E-1,1.0434653E0,6.506832E-1,1.3804273E-1,8.9265937E-1,-8.388649E-1,8.8402495E-2,6.8756455E-1,8.701492E-2,4.60217E-1,1.0217351E0,8.185971E-2,7.452562E-1,9.4271654E-1,-1.3261713E-1,-9.4603026E-1,1.8962646E-2,5.4376495E-1,-1.16949946E-1,7.9565084E-1,-2.4027692E-1,3.5305563E-2,1.0509075E0,1.037478E0,9.4407356E-1,8.186677E-3,-1.7042892E-1,-1.8686717E-2,6.985715E-2,7.792274E-2,-1.5081963E-1,-8.1294306E-2,-5.100172E-2,-9.1545895E-2,1.5580705E-2,6.29697E-2,-6.2400666E-3,-2.6122037E-2,2.3089375E-2,3.5773348E-2,7.829619E-2,-1.45335E-1,6.6443086E-2,2.3237936E-2,-1.065628E-1,-8.8087E-2,8.52351E-2,8.315918E-2,5.908609E-2,-2.7679402E-1,7.690434E-2],"categories":[],"categories_nodes":[],"categories_segments":[],"categories_sizes":[],"default_left":[0,0,0,0,0,0,0,0,0,0,0,0,0,0,0,0,0,0,0,0,0,0,0,0,0,0,0,0,0,0,0,0,0,0,0,0,0,0,0,0,0,0,0,0,0,0,0,0,0,0,0,0,0,0,0],"id":23,"left_children":[1,3,5,7,9,11,13,15,17,19,21,23,-1,25,27,29,31,33,-1,35,37,39,41,43,45,47,49,51,53,-1,-1,-1,-1,-1,-1,-1,-1,-1,-1,-1,-1,-1,-1,-1,-1,-1,-1,-1,-1,-1,-1,-1,-1,-1,-1],"loss_changes":[1.5497968E4,1.7647925E3,4.7331543E2,9.2997475E1,1.6792695E3,6.793457E1,7.326582E2,7.833646E1,2.401648E1,1.3277793E3,2.1132243E2,4.8833008E1,0E0,1.7209281E3,3.3220215E0,9.5537445E1,2.4564774E1,1.7169846E1,0E0,2.7721484E2,3.2843713E2,1.0633429E2,1.325082E2,2.7289032E1,8.823146E1,1.3921548E3,9.087964E1,9.848633E-1,4.916205E1,0E0,0E0,0E0,0E0,0E0,0E0,0E0,0E0,0E0,0E0,0E0,0E0,0E0,0E0,0E0,0E0,0E0,0E0,0E0,0E0,0E0,0E0,0E0,0E0,0E0,0E0],"parents":[2147483647,0,0,1,1,2,2,3,3,4,4,5,5,6,6,7,7,8,8,9,9,10,10,11,11,13,13,14,14,15,15,16,16,17,17,19,19,20,20,21,21,22,22,23,23,24,24,25,25,26,26,27,27,28,28],"right_children":[2,4,6,8,10,12,14,16,18,20,22,24,-1,26,28,30,32,34,-1,36,38,40,42,44,46,48,50,52,54,-1,-1,-1,-1,-1,-1,-1,-1,-1,-1,-1,-1,-1,-1,-1,-1,-1,-1,-1,-1,-1,-1,-1,-1,-1,-1],"split_conditions":[1E0,3.915801E2,4.0643906E2,4.8647755E1,1.8383778E2,2E0,1.8197816E2,1.801476E2,3.8549057E2,4.5821346E1,1.3327138E1,1.0992715E1,8.701492E-2,4.7910503E1,1E0,2.010842E2,3.9397663E1,1.8234426E1,-1.3261713E-1,1E0,1.4E1,4.952716E0,1.916674E2,1.7082892E2,1E0,1E0,1.2E1,6.756568E0,3.8957672E0,8.186677E-3,-1.7042892E-1,-1.8686717E-2,6.985715E-2,7.792274E-2,-1.5081963E-1,-8.1294306E-2,-5.100172E-2,-9.1545895E-2,1.5580705E-2,6.29697E-2,-6.2400666E-3,-2.6122037E-2,2.3089375E-2,3.5773348E-2,7.829619E-2,-1.45335E-1,6.6443086E-2,2.3237936E-2,-1.065628E-1,-8.8087E-2,8.52351E-2,8.315918E-2,5.908609E-2,-2.7679402E-1,7.690434E-2],"split_indices":[12,1,1,3,0,12,0,0,1,3,4,6,0,3,15,8,3,4,0,14,13,7,0,0,15,16,13,7,7,0,0,0,0,0,0,0,0,0,0,0,0,0,0,0,0,0,0,0,0,0,0,0,0,0,0],"split_type":[0,0,0,0,0,0,0,0,0,0,0,0,0,0,0,0,0,0,0,0,0,0,0,0,0,0,0,0,0,0,0,0,0,0,0,0,0,0,0,0,0,0,0,0,0,0,0,0,0,0,0,0,0,0,0],"sum_hessian":[3.390796E4,1.91724E4,1.4735561E4,2.4719094E3,1.670049E4,4.363008E3,1.0372553E4,2.2970286E3,1.7488077E2,1.4442274E4,2.2582163E3,4.8402658E2,3.8789814E3,6.855676E3,3.5168767E3,2.103532E3,1.934966E2,1.7213261E2,2.7481532E0,1.2838325E4,1.6039496E3,7.013491E2,1.5568672E3,4.3365198E2,5.0374596E1,3.9879883E3,2.8676873E3,2.9138496E3,6.030269E2,2.0851877E3,1.8344332E1,2.2274918E1,1.7122168E2,1.7089565E2,1.2369812E0,1.0458078E4,2.3802466E3,2.0984492E2,1.3941046E3,5.038705E2,1.9747864E2,1.0265801E3,5.302871E2,1.5052786E2,2.831241E2,2.0095007E1,3.0279589E1,3.3614695E3,6.265189E2,1.8732414E1,2.8489548E3,2.8919072E3,2.1942411E1,1.5714846E0,6.0145544E2],"tree_param":{"num_deleted":"0","num_feature":"18","num_nodes":"55","size_leaf_vector":"1"}},{"base_weights":[1.4809432E-2,-5.5133516E-1,7.527771E-1,-6.4041275E-1,5.4473615E-1,6.29259E-1,1.0023323E0,-7.2424924E-1,2.2988118E-1,7.642247E-1,-1.1474515E0,4.7859126E-1,1.0398338E0,1.0051032E0,6.204234E-1,6.5294623E-1,-7.465415E-1,-9.474381E-1,3.9634612E-1,1.003582E0,-6.5036505E-1,-1.1349719E-1,8.316762E-2,2.33596E-1,1.0635427E0,-8.431011E-2,1.0500973E0,9.867124E-1,1.0586522E0,7.5652003E-1,-2.4236949E-1,1.8743089E-1,4.2746137E-3,-6.395082E-2,-4.430574E-2,-1.0455334E-1,-3.5511117E-2,-8.54265E-2,3.5687182E-2,9.2376165E-2,2.0905437E-2,-6.148531E-2,7.943868E-2,-3.6493268E-2,4.5947656E-2,8.742973E-2,-2.175787E-1,8.5133955E-2,4.2762507E-2,7.7489436E-2,8.5632935E-2,7.849865E-2,8.589772E-2,6.9156125E-2,2.6975483E-2,-1.2857714E-1,6.420317E-2],"categories":[],"categories_nodes":[],"categories_segments":[],"categories_sizes":[],"default_left":[0,0,0,0,0,0,0,0,0,0,0,0,0,0,0,0,0,0,0,0,0,0,0,0,0,0,0,0,0,0,0,0,0,0,0,0,0,0,0,0,0,0,0,0,0,0,0,0,0,0,0,0,0,0,0,0,0],"id":24,"left_children":[1,3,5,7,9,11,13,15,17,19,21,23,25,27,29,31,33,35,37,39,41,-1,-1,43,45,-1,47,49,51,53,55,-1,-1,-1,-1,-1,-1,-1,-1,-1,-1,-1,-1,-1,-1,-1,-1,-1,-1,-1,-1,-1,-1,-1,-1,-1,-1],"loss_changes":[1.3675775E4,1.8088438E3,4.373911E2,1.2500991E3,5.1816736E2,5.876782E2,4.3535156E0,4.8022363E2,2.9552957E2,4.1828778E2,9.658029E1,9.968302E2,5.5938477E1,3.552246E0,4.4680557E0,2.5259357E2,1.5616309E2,3.3243988E1,9.662874E1,1.18076294E2,3.555446E1,0E0,0E0,1.1531038E3,2.3083057E2,0E0,1.7863037E1,4.2473145E0,3.2250977E-1,1.1459446E0,9.460148E0,0E0,0E0,0E0,0E0,0E0,0E0,0E0,0E0,0E0,0E0,0E0,0E0,0E0,0E0,0E0,0E0,0E0,0E0,0E0,0E0,0E0,0E0,0E0,0E0,0E0,0E0],"parents":[2147483647,0,0,1,1,2,2,3,3,4,4,5,5,6,6,7,7,8,8,9,9,10,10,11,11,12,12,13,13,14,14,15,15,16,16,17,17,18,18,19,19,20,20,23,23,24,24,26,26,27,27,28,28,29,29,30,30],"right_children":[2,4,6,8,10,12,14,16,18,20,22,24,26,28,30,32,34,36,38,40,42,-1,-1,44,46,-1,48,50,52,54,56,-1,-1,-1,-1,-1,-1,-1,-1,-1,-1,-1,-1,-1,-1,-1,-1,-1,-1,-1,-1,-1,-1,-1,-1,-1,-1],"split_conditions":[1E0,1.2248137E2,2E0,4.8647755E1,1E0,4.7910503E1,7.4167743E0,3.2606E0,1.4E1,1E0,7.82591E0,1.2248137E2,1E1,1.0222056E2,1.0143014E2,3.1381132E1,1.8569928E2,5.437743E0,4.0550488E1,1.1506469E1,5.5016586E1,-1.1349719E-1,8.316762E-2,1.7517021E2,1E0,-8.431011E-2,6.43895E0,4.7910503E1,7E0,9.794781E0,1.040788E2,1.8743089E-1,4.2746137E-3,-6.395082E-2,-4.430574E-2,-1.0455334E-1,-3.5511117E-2,-8.54265E-2,3.5687182E-2,9.2376165E-2,2.0905437E-2,-6.148531E-2,7.943868E-2,-3.6493268E-2,4.5947656E-2,8.742973E-2,-2.175787E-1,8.5133955E-2,4.2762507E-2,7.7489436E-2,8.5632935E-2,7.849865E-2,8.589772E-2,6.9156125E-2,2.6975483E-2,-1.2857714E-1,6.420317E-2],"split_indices":[12,2,12,3,17,3,7,7,13,16,7,2,13,2,2,5,8,7,11,6,11,0,0,8,16,0,7,3,13,6,2,0,0,0,0,0,0,0,0,0,0,0,0,0,0,0,0,0,0,0,0,0,0,0,0,0,0],"split_type":[0,0,0,0,0,0,0,0,0,0,0,0,0,0,0,0,0,0,0,0,0,0,0,0,0,0,0,0,0,0,0,0,0,0,0,0,0,0,0,0,0,0,0,0,0,0,0,0,0,0,0,0,0,0,0,0,0],"sum_hessian":[3.2731115E4,1.8521941E4,1.4209173E4,1.713019E4,1.391753E3,9.507118E3,4.702055E3,1.5625165E4,1.5050233E3,1.2324448E3,1.5930829E2,6.956479E3,2.5506387E3,4.666566E3,3.548936E1,2.4844063E2,1.5376725E4,1.8585771E2,1.3191656E3,1.0543353E3,1.7810953E2,1.4204189E2,1.7266397E1,4.903955E3,2.0525244E3,1.1946413E1,2.5386921E3,3.4880571E3,1.1785087E3,3.0760399E1,4.728962E0,6.429489E1,1.8414574E2,1.2065278E4,3.3114468E3,1.0751115E2,7.8346565E1,4.267202E1,1.2764935E3,8.75528E2,1.7880725E2,1.6665485E2,1.1454682E1,1.6214332E3,3.2825217E3,2.0374407E3,1.5083634E1,2.4701821E3,6.8510155E1,2.8783738E3,6.0968335E2,2.0278941E2,9.7571924E2,2.3619413E1,7.1409855E0,1.8172107E0,2.9117515E0],"tree_param":{"num_deleted":"0","num_feature":"18","num_nodes":"57","size_leaf_vector":"1"}},{"base_weights":[9.266285E-3,-5.2808094E-1,7.2818005E-1,-6.176786E-1,5.387838E-1,1.0288688E0,6.095582E-1,1.0061088E-1,-7.520731E-1,6.979654E-1,-5.9695464E-1,7.02558E-1,8.575505E-2,4.0951574E-1,1.0029753E0,4.9937156E-1,-8.08113E-2,-9.070848E-1,7.07284E-2,4.162243E-1,9.821453E-1,8.1376266E-1,-8.840179E-1,8.607238E-1,6.200008E-2,-1.02434286E-4,1.0220078E0,8.4920645E-1,1.0160556E0,1.6370563E-1,3.3460848E-2,8.462517E-3,-3.6892362E-2,-8.460427E-2,8.082041E-3,-9.306494E-2,9.140329E-3,-7.605096E-2,7.404385E-2,-1.6536662E-1,8.2395256E-2,-1.641564E-1,9.917782E-2,-8.469845E-2,9.446139E-2,9.52815E-2,5.2408308E-2,1.0651939E-1,-2.6079878E-2,-1.0513917E-1,8.157974E-2,-9.1986276E-2,8.3104745E-2,-1.8205047E-1,6.982067E-2,8.233286E-2,7.6212846E-2],"categories":[],"categories_nodes":[],"categories_segments":[],"categories_sizes":[],"default_left":[0,0,0,0,0,0,0,0,0,0,0,0,0,0,0,0,0,0,0,0,0,0,0,0,0,0,0,0,0,0,0,0,0,0,0,0,0,0,0,0,0,0,0,0,0,0,0,0,0,0,0,0,0,0,0,0,0],"id":25,"left_children":[1,3,5,7,9,11,13,15,17,19,21,23,-1,25,27,29,31,33,35,37,39,41,43,45,47,49,51,53,55,-1,-1,-1,-1,-1,-1,-1,-1,-1,-1,-1,-1,-1,-1,-1,-1,-1,-1,-1,-1,-1,-1,-1,-1,-1,-1,-1,-1],"loss_changes":[1.2150164E4,1.7208281E3,4.792246E2,1.603021E3,2.5261972E2,5.271411E1,7.5902783E2,1.8944032E2,1.7841357E3,9.759015E1,7.038356E1,4.51828E1,0E0,1.6053643E3,5.6782227E0,1.0188231E2,1.278111E2,1.7855605E3,1.1928955E2,4.299798E2,9.08291E1,3.868452E1,5.2987465E1,2.3533386E1,4.4515144E1,5.141618E3,9.476758E1,2.1197266E1,1.505127E0,0E0,0E0,0E0,0E0,0E0,0E0,0E0,0E0,0E0,0E0,0E0,0E0,0E0,0E0,0E0,0E0,0E0,0E0,0E0,0E0,0E0,0E0,0E0,0E0,0E0,0E0,0E0,0E0],"parents":[2147483647,0,0,1,1,2,2,3,3,4,4,5,5,6,6,7,7,8,8,9,9,10,10,11,11,13,13,14,14,15,15,16,16,17,17,18,18,19,19,20,20,21,21,22,22,23,23,24,24,25,25,26,26,27,27,28,28],"right_children":[2,4,6,8,10,12,14,16,18,20,22,24,-1,26,28,30,32,34,36,38,40,42,44,46,48,50,52,54,56,-1,-1,-1,-1,-1,-1,-1,-1,-1,-1,-1,-1,-1,-1,-1,-1,-1,-1,-1,-1,-1,-1,-1,-1,-1,-1,-1,-1],"split_conditions":[1E0,1.2248137E2,3.990723E2,4.1953986E2,1E0,2E0,1.8197816E2,4.6533657E1,1.8197816E2,1E0,3.8549057E2,1E0,8.575505E-2,4.6914577E1,1.8547624E2,3.1381132E1,3.803444E2,4.6914577E1,1.6127126E2,1E0,1.4822617E2,1E1,1.9343433E2,3.949838E1,3.8467686E1,1.17789734E2,1.2E1,1.5468219E2,1E0,1.6370563E-1,3.3460848E-2,8.462517E-3,-3.6892362E-2,-8.460427E-2,8.082041E-3,-9.306494E-2,9.140329E-3,-7.605096E-2,7.404385E-2,-1.6536662E-1,8.2395256E-2,-1.641564E-1,9.917782E-2,-8.469845E-2,9.446139E-2,9.52815E-2,5.2408308E-2,1.0651939E-1,-2.6079878E-2,-1.0513917E-1,8.157974E-2,-9.1986276E-2,8.3104745E-2,-1.8205047E-1,6.982067E-2,8.233286E-2,7.6212846E-2],"split_indices":[12,2,1,1,16,12,0,5,0,14,1,16,0,3,0,5,1,3,8,15,8,13,0,3,3,2,13,8,15,0,0,0,0,0,0,0,0,0,0,0,0,0,0,0,0,0,0,0,0,0,0,0,0,0,0,0,0],"split_type":[0,0,0,0,0,0,0,0,0,0,0,0,0,0,0,0,0,0,0,0,0,0,0,0,0,0,0,0,0,0,0,0,0,0,0,0,0,0,0,0,0,0,0,0,0,0,0,0,0,0,0,0,0,0,0,0,0],"sum_hessian":[3.1450154E4,1.7997965E4,1.345219E4,1.660395E4,1.3940155E3,3.8034185E3,9.648772E3,2.6170454E3,1.3986903E4,1.2229904E3,1.7102513E2,4.4549316E2,3.3579253E3,6.3977314E3,3.2510405E3,8.1779755E2,1.7992478E3,1.1769487E4,2.217416E3,6.1536804E2,6.076223E2,2.8606955E1,1.4241818E2,3.5699957E2,8.8493614E1,3.834393E3,2.5633386E3,2.6003558E2,2.9910051E3,3.9536106E1,7.782615E2,1.2075548E3,5.91693E2,1.02409E4,1.5285862E3,7.4669205E1,2.1427468E3,1.6681738E2,4.4855066E2,8.7252445E0,5.988971E2,3.2079167E0,2.5399038E1,1.3175676E2,1.0661424E1,1.3513495E2,2.2186462E2,2.0146053E1,6.834756E1,1.6753346E3,2.1590583E3,1.9160254E1,2.5441782E3,1.2299199E0,2.5880566E2,2.465996E3,5.2500903E2],"tree_param":{"num_deleted":"0","num_feature":"18","num_nodes":"57","size_leaf_vector":"1"}},{"base_weights":[6.7141475E-3,-5.1586324E-1,7.174375E-1,-6.0952735E-1,4.2467824E-1,1.0151222E0,6.0106766E-1,6.1457183E-2,-7.4535155E-1,6.274211E-1,-4.3026578E-1,6.132368E-1,8.522753E-2,4.4290707E-1,1.0256788E0,1.6078043E-1,-4.5052034E-1,-8.4605646E-1,2.4243314E-2,7.910382E-1,-7.4282706E-1,-1.0767661E0,1.3013452E-1,-2.0903787E-1,7.161245E-1,1.7265967E-1,1.0175406E0,-7.330231E-1,1.0386543E0,1.2410131E-1,9.136697E-3,-1.3445984E-1,-1.3572843E-2,-7.188408E-2,-8.039159E-3,-9.894684E-2,1.6340498E-2,6.711207E-2,-5.8201656E-2,6.771652E-2,-8.147114E-2,5.2437857E-2,-1.0897577E-1,-1.1690239E-1,3.5177946E-2,-1.327819E-1,3.25202E-2,8.5918784E-2,3.845159E-2,-3.9012466E-2,4.4418767E-2,8.417699E-2,-2.0807777E-1,-8.7248564E-2,3.7613712E-2,8.403112E-2,6.1700575E-2],"categories":[],"categories_nodes":[],"categories_segments":[],"categories_sizes":[],"default_left":[0,0,0,0,0,0,0,0,0,0,0,0,0,0,0,0,0,0,0,0,0,0,0,0,0,0,0,0,0,0,0,0,0,0,0,0,0,0,0,0,0,0,0,0,0,0,0,0,0,0,0,0,0,0,0,0,0],"id":26,"left_children":[1,3,5,7,9,11,13,15,17,19,21,23,-1,25,27,29,31,33,35,37,39,41,43,45,47,49,51,53,55,-1,-1,-1,-1,-1,-1,-1,-1,-1,-1,-1,-1,-1,-1,-1,-1,-1,-1,-1,-1,-1,-1,-1,-1,-1,-1,-1,-1],"loss_changes":[1.105684E4,1.5116016E3,4.363667E2,1.4219941E3,2.696876E2,7.0872314E1,6.0875586E2,1.336874E2,1.0056797E3,2.8235577E2,1.0829898E2,3.3653183E1,0E0,1.0265125E3,5.6926025E1,1.423782E2,1.473167E2,4.4900098E2,3.4132556E2,8.224841E1,5.9799843E1,6.948413E1,7.987051E1,4.069377E1,2.9163132E1,1.1364999E3,2.6802393E2,8.520312E0,6.8571777E0,0E0,0E0,0E0,0E0,0E0,0E0,0E0,0E0,0E0,0E0,0E0,0E0,0E0,0E0,0E0,0E0,0E0,0E0,0E0,0E0,0E0,0E0,0E0,0E0,0E0,0E0,0E0,0E0],"parents":[2147483647,0,0,1,1,2,2,3,3,4,4,5,5,6,6,7,7,8,8,9,9,10,10,11,11,13,13,14,14,15,15,16,16,17,17,18,18,19,19,20,20,21,21,22,22,23,23,24,24,25,25,26,26,27,27,28,28],"right_children":[2,4,6,8,10,12,14,16,18,20,22,24,-1,26,28,30,32,34,36,38,40,42,44,46,48,50,52,54,56,-1,-1,-1,-1,-1,-1,-1,-1,-1,-1,-1,-1,-1,-1,-1,-1,-1,-1,-1,-1,-1,-1,-1,-1,-1,-1,-1,-1],"split_conditions":[1E0,1.2062034E2,3.990723E2,4.227185E2,1.1506469E1,2E0,4.7910503E1,4.2950256E2,4.6914577E1,1E0,1.5540141E1,9.857629E1,8.522753E-2,1.2062034E2,1.2E1,1.0034859E1,4.544605E0,2.010842E2,1.4E1,5.184015E2,3.6475186E2,3.8549057E2,1.2248137E2,1.7425307E2,3.94108E1,1.772478E2,1E0,1.8372952E1,6.43895E0,1.2410131E-1,9.136697E-3,-1.3445984E-1,-1.3572843E-2,-7.188408E-2,-8.039159E-3,-9.894684E-2,1.6340498E-2,6.711207E-2,-5.8201656E-2,6.771652E-2,-8.147114E-2,5.2437857E-2,-1.0897577E-1,-1.1690239E-1,3.5177946E-2,-1.327819E-1,3.25202E-2,8.5918784E-2,3.845159E-2,-3.9012466E-2,4.4418767E-2,8.417699E-2,-2.0807777E-1,-8.7248564E-2,3.7613712E-2,8.403112E-2,6.1700575E-2],"split_indices":[12,2,1,1,6,12,3,9,3,16,4,2,0,2,13,4,7,8,13,9,1,1,2,8,3,8,16,4,7,0,0,0,0,0,0,0,0,0,0,0,0,0,0,0,0,0,0,0,0,0,0,0,0,0,0,0,0],"split_type":[0,0,0,0,0,0,0,0,0,0,0,0,0,0,0,0,0,0,0,0,0,0,0,0,0,0,0,0,0,0,0,0,0,0,0,0,0,0,0,0,0,0,0,0,0,0,0,0,0,0,0,0,0,0,0,0,0],"sum_hessian":[2.976807E4,1.7154824E4,1.2613245E4,1.5601496E4,1.5533286E3,3.5427766E3,9.070469E3,2.626564E3,1.2974932E4,1.2557937E3,2.9753485E2,3.9501315E2,3.1477634E3,6.6102886E3,2.4601802E3,2.2003782E3,4.2618573E2,1.1473478E4,1.5014546E3,1.1222161E3,1.3357768E2,1.3772655E2,1.598083E2,4.381486E1,3.511983E2,4.4967764E3,2.113512E3,1.7611666E1,2.4425686E3,7.026211E1,2.130116E3,7.828703E1,3.478987E2,1.0718588E4,7.548892E2,1.8681976E2,1.3146349E3,1.0883601E3,3.3855915E1,1.9432203E1,1.1414548E2,1.9300175E1,1.1842637E2,2.5419897E1,1.3438841E2,1.2547008E1,3.1267853E1,1.3796733E2,2.1323096E2,1.6495012E3,2.8472754E3,2.0941555E3,1.93565E1,1.3648861E1,3.9628057E0,2.3370771E3,1.0549154E2],"tree_param":{"num_deleted":"0","num_feature":"18","num_nodes":"57","size_leaf_vector":"1"}},{"base_weights":[1.1239108E-3,-1.623172E-1,6.4817584E-1,6.061357E-1,-3.935467E-1,4.0217307E-1,7.0542127E-1,6.8144953E-1,1.9256091E-1,-6.631793E-1,7.113167E-1,4.989329E-1,-7.9081696E-1,8.189037E-1,6.305217E-1,6.91939E-1,-4.1660747E-1,4.191861E-1,-3.936405E-1,-1.0978919E0,6.14989E-1,8.2970136E-1,-1.1557966E0,6.6786474E-1,1.2886089E-1,-1.21827684E-1,-1.2696031E0,8.713353E-1,3.3723882E-1,-1.1552043E-1,6.4915055E-1,5.589442E-2,-6.589082E-2,-9.9562E-2,1.1444022E-2,4.8905354E-2,-1.2007025E-2,1.471703E-1,-4.1466735E-2,3.177949E-2,-8.8475995E-2,5.7038445E-2,-1.3010499E-2,7.619936E-2,-1.0177558E-1,-1.18819684E-1,8.389552E-2,3.7512228E-2,1.0780096E-1,-8.7292604E-2,2.1548817E-2,3.6568336E-2,-1.1648655E-1,-1.12558745E-1,2.2685913E-2,6.762482E-2,1.05943985E-1,-1.4637671E-1,3.9091382E-2,4.1914616E-2,-6.0782477E-2,3.5549615E-2,5.660695E-2],"categories":[],"categories_nodes":[],"categories_segments":[],"categories_sizes":[],"default_left":[0,0,0,0,0,0,0,0,0,0,0,0,0,0,0,0,0,0,0,0,0,0,0,0,0,0,0,0,0,0,0,0,0,0,0,0,0,0,0,0,0,0,0,0,0,0,0,0,0,0,0,0,0,0,0,0,0,0,0,0,0,0,0],"id":27,"left_children":[1,3,5,7,9,11,13,15,17,19,21,23,25,27,29,31,33,35,37,39,41,43,45,47,49,51,53,55,57,59,61,-1,-1,-1,-1,-1,-1,-1,-1,-1,-1,-1,-1,-1,-1,-1,-1,-1,-1,-1,-1,-1,-1,-1,-1,-1,-1,-1,-1,-1,-1,-1,-1],"loss_changes":[3.0054265E3,4.0316404E3,8.04209E1,1.6333887E2,5.196206E3,1.2554295E2,3.8988037E1,5.1420166E1,1.07756256E2,7.7906743E3,7.57308E2,6.2645767E1,2.60214E1,4.6289185E1,3.9046387E1,4.550586E1,1.99309E1,6.40283E1,